{"layers":[{"nodes":[{"input_bias":5.0566998,"input_weights":[0.2908001,-0.9420581,-0.67687297,0.008196592,-0.64343524,-0.3119502,-0.72926354,0.04931903,-0.53315425,-0.11370683,0.6726406,0.14279556,0.2776544,0.17891002,-0.4933431,-0.82898736,-0.7936914,-0.6968012,-0.94621515,-0.6772256,0.25196385,0.6925087,-0.42743826,-0.1702342,0.6455319,0.21118498,0.49930978,0.78683615,0.5160873,0.539449,-0.9633064,0.12117863,0.65219384,0.36448693,-0.41354275,0.46741676,0.008588791,-0.9148457,0.8412428,-0.44432735,0.8903477,-0.011151314,-0.8739219,0.41105223,0.030954251,0.25326657,-0.9246811,-0.8967757,-0.44310695,0.8002262,0.03178719,-0.24795333,0.36091676,0.91679555,-0.37908575,-0.71986336,0.0029844008,-0.70289135,-0.75464237,-0.7042472,-0.7957148,0.7385046,0.70087844,1.3933177,-0.2170499,0.032164752,0.9837247,-0.08915076,-0.38745174,-0.3988159,-0.041168418,-0.043538116,0.92000705,0.12190245,-0.60342246,0.2808407,-0.24849913,1.026585,0.39228284,0.81845367,-0.38263074,0.98287076,-0.70830655,-0.95927,0.24240565,-0.29005423,-0.29084858,-0.78721404,0.081136264,0.33753398,-0.46669218,-0.7422085,-0.6586931,-0.072199345,0.4812429,0.1602149,-0.782969,-0.9339533,-0.6344087,-0.237144,-0.27399182,0.1273377,-0.1702931,0.7271743,-0.58034253,0.23913574,-0.47554612,0.8070152,-0.12594795,0.26543045,-0.10453749,-0.048140764,-0.81074166,0.27621126,0.7150173,0.50075364,-0.6132798,0.54522586,0.29781199,-0.2100215,-0.7567704,0.86375713,0.76424813,0.7229972,0.63323,-0.6281369,0.7891407,-0.006783247,0.15433097,0.31202888,0.10891223,-0.8094268,-0.71686506,0.18277311,-0.98949313,0.9742012,0.5931959,-0.90118504,-0.6250973,-0.54722667,0.30322933,-0.6722927,0.37472367,0.29573202,0.4906175,0.6054168,0.41028094,-0.90330124,0.22202706,-0.5532615,0.49387932,-0.49700117,-0.6934953,0.5178406,-0.03802228,-0.5725913,-0.9576938,0.4594381,0.7930343,0.9283657,0.95472836,0.76500154,0.7039845,0.7626121,0.71980286,0.85528684,0.99460673,0.8307495,-0.65945053,-0.020339489,-0.47690296,-0.4484892,-0.9061701,-0.23187923,0.7891352,-0.076078415,-0.26211023,-0.5490148,0.84979963,-0.352561,0.9934523,0.9729419,-0.85575414,0.61669683,-0.5193367,0.14654636,-0.38136268,0.31868362,-0.29087996,-0.19046593,-0.9009371,-0.18648362,-0.58753204,0.036563873,-0.25305128,0.74154186,0.81409097,-0.88820267,-0.5376847,0.4343083,0.95420957,0.8473537,-0.5781727,0.018219471,0.25944567,0.6134448,-0.7886572,0.37886834,0.23195362,-0.69350433,-0.16502666,0.12572145,0.25143623,-0.513273,0.65215063,-0.42868853,-0.47331357,0.68451595,-0.6972313,0.015829086,0.5644522,-0.37162828]},{"input_bias":4.905951,"input_weights":[-0.33279824,0.3499062,-0.09509611,0.05355358,-0.07510209,-0.4765582,0.47340727,0.683465,0.9820986,-0.26948977,-0.54146254,-0.008018732,0.41083646,-0.50231504,0.37100124,-0.90968084,-0.3701794,0.2176528,0.92616534,0.48693967,0.2312746,0.5754068,0.5435004,-0.14523602,-0.5504186,-0.5695317,-0.15236068,0.18626523,-0.23503804,0.91614175,0.26664495,-0.69047,1.2364992,-0.21154118,0.04217744,0.7610283,0.10893297,0.5244057,-0.15051627,0.6239774,0.4226694,0.681479,-0.9764073,0.7466624,-0.17771508,0.36759186,-0.33799618,0.60918236,-0.89424855,-0.15645613,-0.91336894,-0.7488385,-0.76554984,-0.27283096,-0.635974,-0.36257067,-0.008337725,0.078266166,-0.5629694,0.13839866,0.8741843,-0.35184216,0.794759,0.6697786,-0.64277136,-0.23651694,0.85050833,-0.62707406,-0.87845415,-0.8633558,0.36120397,0.5200235,1.0493813,-0.22138543,0.16613474,-0.6028787,-0.8346565,0.33607548,0.81997436,0.5404273,1.0033545,0.0073685464,-0.657512,-0.8622523,-0.1899714,-0.41787207,0.4437528,0.6482666,0.33031622,0.29813725,-0.4761659,-0.17335378,0.7353377,0.7163005,0.18233609,-0.3843763,0.5463042,-0.5585761,-0.96265817,-0.5985558,0.588403,0.584291,-0.6892481,0.7971463,-0.0036227703,-0.055164814,-0.88262224,0.2313025,-0.6079514,0.036160946,0.6874449,0.7952702,-0.12772012,-0.27197194,-0.4112382,0.043295622,-0.13683057,-0.9697192,0.28116417,-0.007534981,0.16425753,-0.89857435,-0.14010811,0.96866536,-0.97422504,0.13189888,-0.1822977,0.78076625,0.99129844,-0.9638145,-0.23284292,0.4885614,0.19543648,0.22007012,-0.2899344,-0.85041237,0.2645967,-0.043226004,-0.96776795,-0.17673445,0.69542146,-0.483804,0.6888728,-0.8213618,-0.22066355,-0.14040685,0.94079185,-0.8642297,-0.93753314,0.4763615,-0.059928656,0.40238237,-0.21553183,0.8316138,-0.11290693,0.5820279,0.6684711,0.27306557,0.9982157,0.104833364,-0.45132184,-0.30217767,-0.985749,-0.13515973,0.58541346,0.33486485,0.40504813,-0.92299294,0.45100665,0.18402934,0.023474455,-0.8376045,-0.28829813,-0.46644187,0.2394917,0.41507983,0.13202143,0.67695904,0.47467732,0.076007605,0.034230947,-0.9131682,0.37005234,-0.43597078,0.26658988,0.34465528,0.23818827,0.5983565,-0.49048758,0.63894415,-0.6991315,0.83118725,-0.14785671,0.6209307,-0.2908206,0.40703034,0.31627297,0.7434561,-0.47829795,0.41150546,-0.056121826,-0.97886395,0.9651098,0.9560931,0.8752034,0.5068629,0.68890977,0.17013359,-0.38781142,-0.48907566,-0.044919014,-0.2503562,-0.79122376,0.85845256,0.08945775,0.7992556,0.83112025,0.5769203,0.68129134,0.29895163,0.17283654,0.7852428]},{"input_bias":6.801249,"input_weights":[0.7832897,-0.6260321,0.12622619,-0.20073819,0.7830615,0.3738644,0.97224545,-0.19176412,-0.8631892,-0.4435246,0.79091316,-0.46671104,-0.26019096,-0.20563006,-0.5768714,0.7240889,0.20390654,0.048950195,0.6414788,0.6533506,-0.054005384,0.8715961,0.96736646,-0.25504875,0.8018317,0.40489697,-0.052596092,0.5145738,0.6593089,0.20371556,0.14651561,0.20670438,1.0744344,0.2639079,-0.5752094,-0.1368649,-0.027812243,-0.51928663,-0.7931912,-0.35206318,-0.45786476,-0.14027739,-0.32110906,-0.64024115,-0.23211363,0.65701175,-0.4339484,-0.693208,0.5930846,-0.7937187,0.9852961,-0.78274006,-0.75153214,0.45541835,-0.5340503,-0.07981731,0.027234502,0.75541395,0.4003468,-0.15193763,-0.705328,-0.2883552,0.36521193,1.2231203,-0.58613807,-0.3324897,0.378716,0.4178577,0.12029169,-0.15468265,1.0730426,0.7253598,0.4628916,-0.08374988,-0.95415545,0.3541529,0.42096376,1.2022507,0.5056836,0.16091084,-0.45275366,-0.16579965,-0.02423792,-0.8293878,-0.4111055,0.89059347,0.43182054,0.849718,0.052587554,-0.68442905,-0.2990379,-0.6675334,0.3374093,-0.9829538,-0.3716936,-0.40747356,-0.038802147,-0.4013734,-0.33595586,-0.3298509,-0.21175146,-0.384094,0.10800362,0.40012455,-0.2965064,-0.27312732,0.61129737,0.31331778,-0.39663625,-0.07716918,0.19770432,0.2366066,-0.74454856,-0.6524563,-0.87986374,0.8955569,0.06481838,0.38549304,-0.9876313,0.7953346,0.6261375,-0.29284072,-0.28892374,0.5498972,-0.31975365,0.9063263,0.3161435,-0.009612799,-0.6229677,-0.608855,-0.9206581,-0.38928628,0.43356037,-0.11046553,0.4530406,-0.6551106,-0.88524055,0.8073094,0.6717377,-0.3287046,0.29273224,0.96906114,0.64622164,0.093622446,-0.5025306,0.10964441,-0.8495369,0.67606854,-0.47674537,0.6550126,0.3326943,-0.15938711,0.15630913,-0.77273655,-0.012799501,0.6834123,-0.95991826,0.09690976,0.50398564,-0.9089105,0.87728333,-0.7593937,-0.8150208,-0.3383255,-0.0808959,-0.9209888,0.6119864,0.84997916,-0.16425276,0.34155583,0.94066477,-0.975997,0.6836386,0.30098462,0.7068286,0.09673524,-0.6911161,0.50979257,0.668802,0.5249555,0.25153565,0.323766,-0.34843445,0.75383973,-0.7827344,-0.02260828,-0.3008573,0.06430268,0.89779186,0.8154621,-0.5343764,-0.5114429,-0.5485954,0.88090515,0.9772382,-0.36881208,0.97994804,-0.32974815,0.8493712,0.55967474,0.33029532,-0.58063173,-0.6447289,0.84873915,0.88357925,-0.7803445,-0.73864555,0.81254387,0.026626587,0.77172565,-0.7221787,-0.6304512,0.084392786,0.5610211,0.8044119,0.5258291,0.61208963,0.5099168,-0.027529716,0.8815229,-0.22417259,-0.2575233]},{"input_bias":3.1890411,"input_weights":[-0.2568338,-0.9541526,0.16771531,0.4418738,-0.52583456,-0.58816195,0.54589415,0.025469303,-0.24110413,-0.4870999,0.34587228,0.24144697,0.36974812,-0.74988675,-0.02801776,-0.2166245,0.4648788,-0.8827243,0.6416266,-0.59403205,0.7028158,0.47228932,-0.6967504,-0.28523207,-0.016201735,0.5854943,0.93237066,-0.6921375,-0.2924173,-0.98450255,-0.8148012,0.21845126,0.9200464,-0.57491755,0.1442182,-0.45518446,-0.82574224,0.1623373,-0.3513031,-0.991559,0.88334465,-0.19833207,0.2147305,0.4115982,0.16152385,-0.9550626,-0.37323335,0.6055608,-0.5509038,-0.14606322,0.49505576,0.9373409,0.060951706,-0.31440833,0.94636613,1.0195827,-0.3583441,-0.9850902,0.055323813,-0.30095637,-0.6613344,0.71705574,-0.13484682,0.7934991,0.69916797,1.0215025,-0.44671836,-0.42397434,0.012355151,-0.07972884,-0.803841,-0.76002955,-0.055639587,-0.8088122,-0.91091406,-0.04579729,0.8424707,1.0124224,0.4061992,-0.44705912,0.82125986,0.13188623,0.63663125,-0.3352182,-0.11422188,0.8883658,-0.40716487,0.04779288,0.6850467,0.27923957,-0.80111253,0.6618722,0.9805519,0.69401145,0.8971956,-0.578079,-0.9473133,0.86367774,0.5983925,-0.17467785,0.54515624,-0.23713231,-0.6711874,0.90976644,-0.32012415,0.40508246,-0.969651,0.74858,-0.7153077,-0.45711923,-0.596349,0.8449993,0.52683735,0.69916797,-0.5615854,-0.007830143,0.086363554,-0.42545748,0.5633385,0.21523643,0.9365077,-0.5529461,0.5674691,0.01457572,0.66474867,0.5393164,0.05003524,0.14054084,0.048705578,0.52113867,-0.95216537,0.82806396,-0.9058709,0.7174814,0.061202765,-0.807215,0.6212661,0.82477355,0.104875565,-0.107899666,-0.5027664,0.61866665,0.88202286,-0.997319,0.6956904,0.0377872,0.3597355,-0.6005435,0.84792876,0.75747085,0.38746595,-0.88865805,0.64103746,0.31502652,0.098139524,-0.2557187,0.92014694,-0.7395451,-0.5610292,0.4129703,-0.118430376,-0.8625407,0.4220245,-0.78471684,0.13617635,-0.15311074,-0.9096093,0.36699796,0.4355333,-0.59785867,-0.5507951,0.9484012,0.37876248,0.18543625,-0.50317883,-0.86054945,0.6261699,-0.45374417,0.5193877,0.9068718,0.4958732,-0.6362455,-0.16083694,-0.47871065,0.67063236,0.49490404,0.18027091,0.30723548,0.89325786,-0.7816105,0.65150166,-0.5430019,0.9245465,-0.3493595,0.13443804,0.05008173,0.6652899,0.29626417,0.6161213,0.9653013,-0.75370526,0.487736,0.5827236,-0.5511613,0.44623542,0.3202548,-0.6573076,0.7620418,-0.23326945,-0.29950047,0.91820145,0.40198922,0.937901,-0.86176467,-0.6360216,0.66978383,-0.833889,0.67284703,0.6586828,-0.32167053,0.4537158,-0.84329677]},{"input_bias":4.9416165,"input_weights":[-0.31658936,0.56863284,0.787472,-0.5982888,-0.07163739,0.23533201,0.46122456,0.40647602,0.19799757,0.8897972,0.9119361,0.8827827,-0.57836366,-0.54630446,-0.8200455,-0.738739,-0.9993627,-0.565192,-0.6247971,0.065517426,0.20112681,0.9606385,0.41232252,0.9532056,-0.5168345,-0.19042087,0.74590826,-0.094255924,0.25918984,-0.088725805,0.038915634,-0.8169255,0.9944801,0.123280525,-0.32985663,0.58440804,-0.6789775,-0.52226686,-0.22256279,0.8693805,-0.6733775,0.65472484,-0.5960901,-0.90532374,-0.4269916,-0.06804323,-0.38074636,-0.8763962,-0.096553564,0.21127637,0.44309866,0.7144969,0.6512353,-0.72591853,-0.38463104,-0.093045585,-0.21907939,-0.085382245,0.19131696,0.6233954,0.20520335,0.39355332,-0.8092076,0.77890056,0.5403544,-0.767024,0.99661785,0.03374381,0.013834415,0.21667202,0.30983797,0.9441711,1.1211646,0.466703,0.958979,-0.19730298,-0.32773373,0.568353,0.9345771,-0.78649724,0.46103647,0.075132884,0.17911604,0.7670032,-0.22863038,0.37772542,1.0096644,-0.00082777377,0.39520633,-0.039384898,-0.7011838,0.21063377,1.0170158,0.91645765,0.5235479,-0.52581453,-0.5327246,-0.46913457,0.7658551,-0.2488854,-0.05347228,-0.39221287,-0.7203376,0.11195254,0.21759605,0.32588983,-0.7080605,-0.96569896,-0.99873495,0.18255925,0.17575073,0.62344575,-0.8150618,0.095954895,-0.91907454,0.917799,-0.59973955,0.13666558,0.53356385,0.08474469,0.48185062,-0.39011145,0.2717483,0.99631643,0.18547249,-0.21566367,0.864378,-0.3546114,-0.3655691,0.75564504,-0.29684234,-0.24115157,0.85031176,0.034506083,0.9614358,0.9037192,-0.17455769,0.5892074,0.072096825,-0.3297627,0.8830037,0.72660947,-0.0034770966,-0.716269,0.49182034,0.80700326,-0.43188095,0.81849074,-0.46718144,-0.32920814,-0.6779361,0.7437675,0.011182785,-0.13005042,0.9705703,0.66056585,0.5899527,-0.3002329,0.1866219,0.012927294,-0.23645234,-0.95075107,-0.7707553,0.8128338,0.33069396,-0.092690945,-0.91526914,-0.23563862,0.19117165,0.25495124,-0.45226526,0.17080665,0.0883584,-0.8493037,0.3988359,0.032833338,-0.19174242,-0.7608323,0.5607443,-0.35443735,-0.85250354,-0.06317663,0.53382754,-0.8839948,-0.7571261,0.933604,0.21026587,-0.22604012,0.712553,-0.209337,0.7813368,0.26257467,0.2638991,-0.07565665,-0.14997435,0.7051418,-0.8100226,0.6076579,-0.6124582,-0.052425146,0.40363312,-0.6627853,0.34915423,-0.6463094,-0.85684514,-0.24560118,0.55694056,0.41603422,0.6287544,-0.29988432,0.55027294,-0.5838313,-0.02084899,-0.3873887,0.11234403,-0.93443537,-0.70666504,-0.42151308,-0.21170425,0.5929098,-0.84615135,0.43608737]},{"input_bias":13.762364,"input_weights":[-0.11556053,0.23617935,-0.88918376,-0.5575428,-0.5999584,0.58684087,0.14881444,0.9740317,-0.020484924,0.43541908,0.8776724,-0.5613744,0.75690246,0.66344094,0.17038655,0.15697789,-0.6008785,-0.66396976,0.43809104,0.36586428,0.655849,0.3765881,-0.85076284,0.965672,-0.95582867,-0.5047548,-0.09864879,0.2608161,-0.5711303,0.07752204,-0.028609037,0.80289817,2.2805414,-0.050695658,0.17469549,-0.9204521,0.5971675,-0.6545577,0.86613655,-0.6669829,-0.058736324,-0.35454726,-0.5135999,-0.15894485,0.8894026,0.28867173,-0.96498895,0.7417612,-0.07023887,-0.24374546,0.63526666,0.92809796,0.31072196,0.33194804,0.43948656,-0.20470485,0.08195007,-0.29665035,0.4300926,-0.27449647,-0.68471795,-0.60337085,0.80875003,1.2381008,-0.32699308,0.9828252,-0.30894852,-0.85574794,0.106583856,0.45029172,0.33690602,0.65843594,0.5180849,0.48391497,0.8561131,0.9668187,0.04781538,0.70952106,0.41184372,1.0588889,1.109948,0.94394547,0.9275522,1.0400295,-0.11151005,-0.13899414,-0.05545363,0.64661217,0.037149645,0.17172094,-0.24502398,0.85820395,0.80258894,-0.24123788,0.88689923,-0.80326104,0.5654273,0.32936954,-0.25778937,0.13541698,-0.35885644,0.21158838,-0.076888084,-0.9685395,0.42251468,-0.5893781,0.42726088,-0.7461002,-0.41016507,0.9437568,0.5022898,0.7373166,0.17622232,0.8848505,-0.21007037,-0.08724785,-0.3664255,0.49501634,0.23709655,-0.32506657,-0.21593451,-0.76844025,0.43207955,0.57741237,-0.55309796,0.07134557,0.9272592,0.49449086,0.15697789,0.6318028,0.7975347,0.47124743,-0.46636653,0.84776115,-0.4890709,0.4013281,0.5798814,-0.2769022,0.08299613,-0.083902836,0.8960936,0.6859634,-0.6142845,0.28451252,0.7338896,0.92100525,0.57466555,-0.8661406,-0.8583009,-0.60434103,-0.4828539,0.72558403,0.6998317,0.72706723,0.35181904,0.636214,0.56828284,0.9510727,0.3151214,-0.8971641,0.61361885,0.9081447,-0.5879226,-0.3299539,0.030611515,0.3274572,0.15656233,-0.15168762,0.39888525,0.9267459,0.8715308,-0.73446083,0.7388387,0.15350223,-0.3958125,-0.50825334,0.365098,-0.21345448,0.60883355,-0.9157851,-0.24479723,0.34630919,0.9677861,0.23663378,0.6171799,0.83003974,-0.9132726,0.9838829,0.26931262,-0.8192661,-0.77130127,0.37325954,0.04109502,-0.7276988,-0.47782755,-0.4033141,0.57205105,0.7958691,0.5507393,0.26494122,0.08172679,0.9608445,-0.8723898,-0.3310461,-0.18443942,0.40921354,-0.75006676,0.24181819,0.89446163,-0.5458276,-0.36780453,-0.5976372,-0.037911654,-0.6776345,0.84429216,-0.6556957,-0.23278522,0.109134436,-0.8422859,0.48239565,-0.90629196,-0.23250723]},{"input_bias":11.458773,"input_weights":[0.98509383,0.7287762,-0.84447503,-0.43717647,-0.15691018,0.8918655,-0.32400227,-0.6087632,-0.3922515,-0.94379425,1.3638444,-0.0107700825,-0.41093445,-0.4486463,0.81328154,0.030570745,-0.86304307,-0.7120416,0.22465253,0.8801365,-0.5160043,0.14138603,-0.90740347,-0.99951315,0.68563867,-0.93963504,-0.9521506,0.7524712,-0.09228253,0.38849282,0.52161145,0.9647796,2.5375254,0.2481823,0.6192148,0.51580334,-0.34689045,0.15815568,-0.5036516,0.7991986,-0.5518191,0.16529393,0.06557846,-0.5126102,0.92733973,0.40669942,-0.6673448,-0.82159114,-0.7294696,-0.27288616,0.2725834,0.3387376,0.20042871,-0.6678405,-0.24623376,-0.82163334,1.2949198,0.13320488,0.32067567,0.21890682,-0.12889726,-0.31260234,-0.7246636,1.3144339,-0.06305851,0.47717187,-0.106401265,0.9952435,-0.4883467,0.6782329,-0.318816,-0.004973811,0.021053607,0.6171934,0.016800547,0.9427175,0.89408827,-0.34596226,-0.61647326,-0.4238388,1.3833979,0.09440583,0.98298544,0.057166692,1.1111699,-0.53250045,0.19971685,1.1723504,-0.46139157,0.29937252,0.03862893,-0.028674936,-0.8166811,0.7448695,0.8579128,-0.8968625,-0.8516011,0.7557857,0.9762964,0.79394984,-0.9344559,0.034940958,0.67991734,0.20693588,0.22453833,-0.89740133,0.80532146,-0.5520761,-0.0023241043,0.2932527,0.41689014,0.5233309,0.5716381,0.4978559,-0.654279,-0.39835882,0.73779964,-0.9814906,0.8853905,0.39862943,0.92963386,-0.7655387,-0.6028161,0.9476609,-0.31617165,-0.39463043,0.070721865,0.027442694,0.7636144,0.17068195,-0.38650727,0.18310523,-0.16729808,-0.45908594,0.67370486,-0.12577105,-0.75184584,0.95617723,0.70670915,0.77655077,-0.08405304,0.18655944,0.86272645,-0.12357879,0.08463001,-0.8147454,0.60514903,-0.7365396,-0.6428802,-0.8769026,-0.057926893,0.40826774,-0.13353896,0.26013613,-0.1416471,0.055257082,0.67961955,0.10186887,-0.2889502,-0.0036447048,0.32810926,0.7773907,0.30172372,0.8727114,0.29005265,-0.6413686,-0.8323214,0.4090016,0.9573252,0.25598478,0.23324966,-0.80511355,0.881763,-0.52740407,0.56441975,0.5609884,-0.77772856,-0.72801924,-0.61666656,-0.006111622,-0.7124553,0.9761765,-0.28073525,-0.94936943,0.41806412,0.2313919,-0.43553448,0.00095653534,0.365834,-0.5931754,-0.6205497,-0.92153406,-0.9212527,-0.28596592,-0.19626117,0.99780536,-0.4104538,-0.39579487,-0.48092246,-0.14954472,0.38623333,0.6320524,0.6972394,-0.8961661,-0.4997561,-0.016724348,0.18906331,-0.87393594,0.2657411,0.77848864,0.4394102,-0.79715395,-0.10468507,0.9150071,0.42527938,0.39312124,-0.48403907,0.1762011,-0.23293018,0.778214,0.22223592,-0.103483915]},{"input_bias":-3.3298829,"input_weights":[-0.6977198,0.53564954,0.36382627,-0.24235344,-0.6683309,-0.96639395,-0.73148465,-0.11491847,-0.20312142,-0.33691835,0.19054048,-0.073289394,-0.09692502,0.7315085,-0.09239054,0.97281456,-0.35449553,-0.30284572,0.01950097,-0.49906206,-0.4669211,0.36438847,0.18667412,0.63318586,0.10020518,0.071291685,-0.09589195,-0.40542483,-0.9332688,0.75799704,0.9081006,0.91865134,-0.6571973,-0.69271636,0.54191136,0.5198653,0.37914824,-0.923033,-0.9947412,0.45238185,-0.37775612,0.21080422,-0.7643752,-0.3723011,-0.92375743,-0.4505899,0.4257771,0.025079489,-0.13466603,0.944956,0.9142785,-0.060686104,-0.20458053,-0.67723936,-0.8914309,-0.83823377,-0.35655802,-0.9753872,-0.5185064,-0.21686648,0.155896,-0.79277337,0.17214471,0.04357622,0.051744867,-0.5915894,-0.33453128,0.21709134,-0.9154103,-0.6460246,0.120791,0.9389257,-0.42848063,0.057693362,0.52282137,-0.13150313,0.384774,-0.9453244,0.33252853,0.16149761,-0.7102342,-0.42474973,-0.61769676,0.34251186,-0.46073633,0.7451421,-0.28093803,0.4211131,0.8979542,0.2561833,-0.07862339,-0.98427653,0.0126888435,-0.43660378,0.71583104,-0.06169939,-0.096803665,-0.0011036396,0.068259716,0.07991719,-0.8707664,-0.32877374,-0.03223276,0.38195038,0.27885437,-0.68559,0.3692193,-0.14159036,0.9377086,0.84018373,-0.38279033,-0.4118135,0.68564916,0.80280566,-0.64346933,-0.12043643,0.13709068,0.19846034,0.10893369,-0.76766634,0.5523932,-0.81656384,0.24180818,-0.50395894,0.3443215,0.22468233,-0.44584703,0.5667975,-0.49965715,0.10075116,-0.82361364,-0.1399107,0.031355143,-0.5309317,-0.3223033,-0.2232461,-0.2489345,-0.7573657,0.6668775,-0.13907266,0.53389907,0.5252526,-0.2393732,0.14057422,-0.57527924,0.6848924,0.8691366,0.6112807,-0.36781168,0.29067516,0.06717706,0.8698764,-0.19825077,0.35167384,0.9051976,0.38437724,-0.94902706,0.21914887,0.22388268,-0.36325526,-0.95663595,-0.6515391,-0.25915098,0.7077513,-0.17964125,0.826411,0.58873105,-0.35263038,0.67383814,0.14260459,-0.54377246,-0.65603256,0.6877787,-0.104932785,0.16495395,-0.4755044,-0.7810323,0.5482898,0.44502282,0.5668855,0.019042253,-0.7615764,0.972507,-0.25031853,-0.21974778,0.9424293,0.9416015,-0.7241547,0.59135413,-0.3234899,-0.6739812,-0.85765004,0.29355502,-0.12899971,0.26590753,-0.5286305,0.3596213,-0.013878584,-0.4222784,-0.43275738,-0.24087882,-0.7082801,-0.12517548,-0.16688633,-0.7105081,0.18967938,-0.3216114,0.7382252,0.3947544,-0.18993616,-0.7014055,0.41890264,0.29507828,0.31477213,0.43534398,0.9290023,0.23636413,-0.6677463,-0.74709225,0.99627876,0.88243175,-0.1408534]},{"input_bias":0.5736891,"input_weights":[0.9947424,-0.2988515,-0.54109263,0.74793124,-0.66266704,0.53948426,0.21054459,0.67997384,-0.99520254,0.57872486,-0.71223176,-0.87176514,-0.21417904,0.95422196,-0.041275024,0.5529156,0.06705046,-0.703429,0.42870808,-0.36659336,0.3042736,-0.40803957,-0.42852998,0.8623438,0.06823993,0.962476,-0.65787196,0.1102674,0.15092659,0.31984997,0.4874034,0.6853008,-0.53268087,-0.1955049,0.24240112,-0.97669363,-0.26927805,0.0032663345,0.8909428,-0.72347164,0.6922548,0.21497369,0.32070446,-0.02831626,0.5055746,-0.5774579,-0.1795918,0.1802659,-0.54040146,-0.15740095,-0.7750452,0.8485526,-0.5774259,0.73559886,0.2745716,0.13469249,0.5231226,-0.08599242,0.75641894,-0.5521396,0.2965644,-0.4565651,0.59579855,-0.95988256,-0.42592302,-0.37026414,0.88944936,0.68879354,0.046493594,-0.7605996,-0.42685243,0.88706636,-0.95898443,-0.11019428,0.5874712,0.35777453,-0.06330023,0.11228546,-0.31176412,0.27182698,-0.7305962,-0.16482003,-0.021032428,0.8963332,-0.6744987,0.5092091,-0.280053,0.45319706,-0.13310903,0.7023345,-0.3910753,0.8775434,0.07352278,-0.9235749,-0.34363723,0.62352204,0.6020088,-0.26971412,-0.8358762,-0.8690374,-0.9743993,-0.97708535,-0.30125308,-0.67842054,-0.8703809,0.7060683,0.052232027,0.964592,0.5069752,0.50546265,-0.01446414,-0.17151451,-0.36130047,0.038481712,-0.8379216,-0.50281954,0.6833923,-0.29250717,-0.7547591,0.2052195,-0.39404774,-0.8804741,-0.12291336,0.6869552,-0.35405183,-0.4535427,0.45240402,-0.85081244,-0.79406404,0.42065334,0.42177248,-0.39221764,0.7606852,0.21972966,0.18126369,-0.418684,0.31925297,0.34572005,-0.5966668,0.69268966,-0.098991394,0.5372968,-0.21474457,0.860667,0.42499685,0.3799963,0.81654763,0.75980115,-0.44753957,0.6165261,-0.062049866,-0.76959157,-0.9930725,0.48055172,-0.29573154,0.4076085,-0.49591756,-0.15430188,0.30604362,-0.39152002,0.26848674,-0.17896366,-0.97527957,-0.08706045,0.99502516,0.118715286,-0.9626627,-0.578207,-0.55881405,0.30064225,-0.65696716,-0.23740101,0.10408306,0.74312425,0.017089367,-0.78526115,0.86955214,-0.27348328,-0.3848679,0.19854283,0.83960795,-0.76147604,-0.052831173,0.028550863,0.21434164,-0.08628845,0.43423104,-0.026867628,0.21441317,-0.07315469,0.1994412,0.6101284,0.20578647,-0.98755765,-0.28314948,-0.31061888,-0.008862972,-0.55732393,0.24037576,-0.3459239,0.9067769,-0.8992696,-0.38881826,0.010677099,-0.081357,0.56901217,-0.4673984,-0.13586378,-0.64812446,-0.94358635,-0.086173296,-0.21238542,0.5430751,-0.16988444,-0.15090156,-0.124462366,-0.03235221,0.3941288,0.34594464,-0.3152089,-0.60392547,0.093467]},{"input_bias":13.471855,"input_weights":[-0.11295056,0.69631815,-0.98438954,-0.10817528,0.0764451,0.6185856,-0.19193172,0.97204137,-0.37044978,0.9006386,0.25621566,-0.87473917,-0.2780969,0.49208236,0.39992023,0.61698437,-0.7360537,-0.06840968,0.31890965,0.7569771,-0.95419717,-0.62386703,-0.6700063,-0.29274178,-0.96919584,-0.46331143,-0.4304936,0.7935078,-0.0073685646,-0.15639186,0.6423569,0.7929828,2.3927019,-0.16880322,-0.88214993,-0.69619703,0.8181505,-0.64011335,0.050063133,-0.004058361,0.7242577,-0.04321766,-0.8274007,0.8016579,-0.48177984,-0.6471889,0.94957757,-0.6964638,0.76311177,-0.13436554,0.22637318,0.9276124,-0.68728447,0.6637158,-0.92292345,0.14892048,-0.7394656,-0.14752671,-0.035643112,0.49939469,0.6019382,0.90847886,0.69883096,0.7852347,0.9495124,0.8375359,0.17603485,0.41167983,1.0674129,-0.44909546,0.43481418,-0.8927689,-0.1258322,0.3579979,0.056427244,-0.029735202,0.69875634,1.0991893,0.07558918,0.18096049,2.4222343,0.07929014,-0.13893673,-0.09343153,0.50801075,0.59253716,0.058148757,1.2883888,0.48924026,-0.043534823,0.64702356,-0.3708559,1.0310854,-0.8959794,0.076171875,-0.949409,0.8408184,-0.8181462,-0.35488725,-0.37648964,0.6126828,0.96130586,0.36049294,-0.36602283,0.7808757,0.78395796,-0.4753518,-0.6563256,0.52444744,-0.47068095,-0.9651468,0.61043715,0.047269106,-0.3313923,0.9905305,-0.82155824,-0.0072028637,-0.42501903,0.7135799,0.7871249,0.483639,0.5798671,-0.56428933,0.94324493,-0.9940231,-0.49775767,0.5316489,-0.104376316,-0.4907298,0.03897381,-0.79490376,0.5257156,-0.7059858,-0.7343168,-0.04329443,0.69609046,0.89950943,-0.03350663,-0.9509618,0.8546026,-0.6495533,0.29118228,0.23767376,0.52913475,0.024169207,-0.07750416,-0.9336443,-0.20968914,-0.98543334,0.3872676,0.9856453,0.25888443,-0.6049926,-0.66685414,-0.44183636,-0.07765317,0.38948226,-0.7590227,0.8705821,-0.7881062,-0.47429156,-0.6816144,0.70475245,-0.53397846,-0.68286896,0.6866436,0.5737202,-0.732532,0.415807,-0.5595939,-0.34913874,0.0010375977,-0.9281168,-0.6728246,-0.71325207,0.023882627,-0.9432833,-0.101358175,-0.6350076,-0.062526464,-0.10088229,0.34174156,-0.42043233,-0.11768627,0.7985809,0.5705061,0.8353429,-0.464792,-0.06953931,-0.15732121,-0.9311571,-0.62458205,-0.7568729,0.07687998,0.24951005,0.37402177,-0.2136972,-0.8641579,-0.13976216,0.7897253,0.8924594,0.65233135,-0.439507,0.11389637,-0.16782236,0.051629066,-0.3320682,-0.24889612,-0.7744086,0.64228654,0.3183086,-0.6194215,0.91281056,-0.7251723,-0.21223927,0.66644406,0.7570307,0.79509115,0.73485994,0.7200134,-0.4957652,-0.811847]},{"input_bias":23.448702,"input_weights":[0.71619725,-0.44387245,0.51822853,0.69439244,-0.43017554,0.57663393,0.92658997,0.79583025,0.59515023,-0.20443344,0.7661246,0.19615674,-0.19247961,0.19171071,-0.67175126,0.1153841,-0.9817636,0.14538288,-0.051252604,-0.97503376,0.5087738,-0.10332513,-0.8718426,0.67483354,0.029268742,0.68447614,0.3457091,0.06579137,-0.2240889,0.049712896,-0.65219665,-0.13052273,4.273118,0.714277,0.38265038,-0.105240345,-0.31842446,-0.73010135,0.6568413,0.55033827,-0.2343936,0.6520231,0.93703246,-0.79571223,-0.72212476,0.6198671,0.5134435,-0.24816394,0.20359217,0.60698223,0.4605748,0.43217042,-0.72882926,-0.792019,-0.75320715,-0.11455584,-0.4964312,-0.19958912,0.0077596097,0.8889522,1.0671375,1.010463,0.6371227,0.78931385,-0.7611191,-0.43432778,-0.7949264,1.3877289,0.64217156,0.9547338,2.5171537,-0.1492335,0.91490626,0.36058694,-0.75838333,2.0412896,-0.39519793,0.8039492,0.8947831,-0.59743315,1.1511801,1.1043868,0.8238261,0.76369417,1.1402372,0.09881088,1.1575463,0.3110077,-0.3612265,0.67750436,0.6148053,1.0454226,-0.6802533,0.28891897,-0.9153025,0.83577514,-0.60396576,-0.9052961,-0.720762,0.33308554,0.8815925,-0.10935497,-0.5850346,0.16692328,0.8384173,0.7543118,0.47505975,0.7537937,-0.7428179,0.8074429,0.2439754,0.30034232,0.53864694,0.9943478,0.0033917427,-0.66649866,0.6297407,0.42200089,0.78844094,0.3287449,-0.11246419,0.11656332,0.53813887,0.32459998,0.7318859,0.57400227,0.08188987,0.1857605,-0.5938451,0.24091697,-0.57469463,0.09456515,-0.25988436,0.40168405,0.25943947,-0.36197925,-0.064582825,0.5142045,0.089975834,-0.84126735,0.6384702,-0.094483376,0.31321907,0.24082446,0.24245453,-0.8302305,0.9701047,-0.03629613,0.18729877,0.56239915,0.10345125,-0.062003374,0.7222924,0.23192072,0.51100993,0.8822925,0.741899,-0.66388965,-0.162256,-0.82468987,-0.26468682,-0.8361318,-0.7876344,0.60327053,0.08138108,0.9118047,0.7646167,-0.94589734,0.101047754,-0.36891937,0.785269,0.8090675,-0.42943048,-0.18392205,0.25650406,0.7788825,-0.5502994,-0.19128251,-0.1180923,-0.02600646,0.1526165,-0.52264595,0.23349857,-0.3824098,0.8363421,-0.29683876,0.39375448,-0.8741667,0.9106555,0.2768209,0.34962988,-0.28995848,-0.26279974,0.16460371,-0.90518403,0.48578715,-0.5454273,0.155262,-0.12137413,-0.39639091,-0.8865659,0.35069394,-0.382015,-0.9553411,0.3524201,-0.035286188,0.07010436,-0.9766569,-0.3556311,0.13005519,-0.187258,0.8968055,-0.3157177,-0.7817869,0.48877478,0.8932183,-0.81347966,0.8285682,0.25711346,0.16160679,0.4633429,0.31504512]},{"input_bias":-0.4796282,"input_weights":[-0.010926962,-0.44347978,-0.7463591,0.8297496,0.023979187,0.13409638,0.2275517,-0.6321368,-0.75210524,0.27892566,-0.59576696,0.29602075,-0.6821234,-0.6945646,-0.122424126,-0.9843185,-0.69996643,-0.73956203,-0.011471748,-0.50551057,-0.60609627,0.3359244,0.7076278,-0.20392847,0.82569456,-0.12798429,0.57523036,0.7638731,-0.3374343,0.04771781,0.8606632,-0.6454704,0.30738583,-0.43670487,0.8040488,-0.8977668,-0.18565178,0.45905018,0.22575617,-0.7756586,-0.7106707,0.98082423,0.57587266,0.921386,0.55085766,0.66602683,-0.726586,-0.7415669,0.18283355,-0.6759856,0.6708625,-0.90040505,-0.8352409,0.2741226,-0.58666074,-0.7433135,-0.25935763,0.9993928,-0.69101316,0.2080325,-0.8850639,-0.24677943,0.88821566,0.90878356,0.0038137103,0.29255974,-0.5474728,-0.5214232,0.41713262,0.41853008,0.73090976,0.7211461,-0.82517564,0.005130331,0.48359454,0.15502587,-0.45530054,0.4998955,0.83638304,0.8370547,0.5939505,-0.76656246,0.1211048,0.2720001,0.47725812,0.24808212,0.9485899,0.70716983,-0.8795724,-0.48451287,-0.007584472,0.70766604,-0.3132655,-0.789057,0.8109684,0.2574656,-0.3122363,0.65106416,0.40334463,-0.8986621,-0.14425325,-0.19740653,-0.7364187,0.7620039,0.81077266,0.8244662,0.027139425,0.41917443,-0.4061532,0.549417,-0.54009104,-0.7895386,0.070393085,-0.5483012,-0.41057515,0.5180416,-0.65352297,0.4077537,0.84913445,0.7751241,-0.34523487,-0.53120565,-0.36633754,0.37600422,-0.49022508,0.03045702,0.012751102,0.16735768,0.833168,-0.0018913746,0.7513664,-0.3762424,0.48277426,-0.20551825,-0.029306889,-0.5246787,-0.73189163,0.97411036,-0.08809018,0.9816718,-0.17043424,0.53345704,0.6381388,-0.6761992,-0.3653028,-0.47555256,0.027097702,0.20621443,0.23601747,0.7614355,-0.30476522,-0.7636845,-0.49607348,-0.039803505,0.3403659,-0.9404652,-0.40636587,-0.18985724,0.03256607,-0.0039269924,0.22579503,0.02650857,-0.01815033,-0.8560407,0.3757701,0.84505606,-0.5530858,0.21783113,-0.6474645,0.57581115,-0.9919977,0.39582205,0.26957512,0.19876671,-0.39697552,0.74416757,-0.89801073,-0.016216516,0.40860033,-0.23758626,0.39997673,-0.57719207,0.95622563,-0.3633535,-0.016062975,0.41247582,0.5766833,-0.97865605,0.29386353,0.6022093,0.07993841,-0.68685913,0.25234032,0.34380102,0.8102808,0.042501688,0.8736198,-0.36889935,0.9831879,-0.35426664,0.47063732,-0.025079012,-0.5097852,0.05711341,-0.38068557,-0.80477214,-0.60748315,-0.91105795,0.10000396,0.9625294,0.63572454,-0.47720623,0.7205217,0.36022377,-0.19116831,-0.23915529,-0.85520387,0.028357744,0.065671444,-0.5051973,0.32218385,-0.7466078]},{"input_bias":2.718882,"input_weights":[-0.287225,0.42953062,0.5397394,0.8265481,0.7541027,-0.34064984,-0.1447928,0.8647256,0.41115522,-0.8222718,0.27960485,-0.62089896,-0.6841142,0.13290834,-0.47488737,0.18672132,-0.40750527,-0.65042925,0.19737697,-0.041182995,-0.5607996,-0.11954045,-0.80464077,-0.2582841,-0.15860152,0.4310789,-0.106860876,0.15708518,0.6889181,-0.22189116,-0.8845346,-0.33483076,0.66270626,0.60614705,-0.98699784,-0.6731465,-0.81429315,-0.83422256,-0.42575788,0.15494084,0.12985516,-0.3768823,0.33573437,0.67112017,-0.49428165,-0.12701869,0.54926383,-0.11311889,0.16065888,0.4162592,-0.32564443,-0.91008276,0.6917348,-0.086590484,-0.38156345,-0.69234926,-0.81234926,0.080397755,0.9325604,-0.07617645,0.3866754,0.8491504,-0.85299426,0.7171961,0.14179514,0.39297813,0.42717516,-0.03483984,0.43346983,0.25126463,-0.8296386,0.96780616,-0.3280552,0.35265628,-0.26524922,0.625253,0.67476344,-0.79374063,0.215536,0.9793019,-0.5951418,0.44780752,0.18855573,-0.15433365,0.85771596,0.7540974,0.02226165,0.44815785,-0.9510358,-0.7344476,0.4122764,-0.05041475,0.9622636,0.57195926,-0.76442814,0.9993911,-0.17419791,0.25400805,0.21323848,0.22476578,-0.48206854,-0.37951803,0.5708654,0.7217016,0.31252122,-0.13621497,-0.14830804,-0.23022962,0.26117253,-0.4057052,0.043608665,0.6857028,0.7209883,0.74310446,0.67916274,0.7827275,-0.44173717,-0.22351217,-0.42836356,-0.86229396,-0.81416845,-0.24195743,0.7816858,0.20410919,0.1992786,-0.31157994,-0.6014745,0.8836448,0.20631766,-0.43768287,0.32347012,0.7078304,-0.22691679,-0.6424625,-0.98108983,-0.6377375,0.16545558,0.4740963,-0.23990989,0.48476315,0.48182178,0.31578493,0.8337846,0.74568176,0.062317133,0.23582673,0.31318855,0.39477563,0.5260067,0.09558773,0.62464285,-0.15363145,0.2713735,-0.97695875,-0.107055426,-0.8844116,0.8117542,-0.5574949,-0.10998273,0.03517604,-0.13900661,0.919657,-0.5103898,-0.72441244,0.019663572,0.60703254,-0.70630074,-0.9090481,-0.6192241,-0.53969646,0.5742781,-0.8981888,0.7528653,0.22025084,0.86629057,-0.4956634,0.26741934,0.51686645,-0.33238292,-0.9037726,0.13365746,0.8247733,-0.27882147,-0.13147402,0.07352805,-0.7073827,0.3515458,0.050195694,-0.15090299,0.4415624,0.011388302,-0.3366294,0.23130465,-0.16250896,0.07812381,-0.28594613,-0.45934725,-0.1852119,-0.4994378,0.108753204,0.25930476,0.59806323,0.61237144,0.3404975,-0.7121124,0.16283774,0.52654934,0.4976809,-0.50102425,0.32466078,0.9742143,0.200773,-0.0748024,0.2083404,-0.26863337,-0.33345532,0.6075406,-0.9979155,-0.9587028,0.52863765,0.357476,-0.22178006]},{"input_bias":1.8277627,"input_weights":[-0.9964454,0.7110226,-0.63736105,0.7934165,-0.23675871,-0.07451439,0.13493562,-0.3191893,-0.7060425,0.86561775,-0.09890858,0.07237649,-0.8427675,-0.61480045,-0.013201952,0.098140955,0.0367198,0.2891705,0.15772462,-0.8206613,0.5667546,-0.24004412,0.26462293,0.19010901,-0.21446252,-0.31675124,-0.67867875,0.5429971,0.18903422,-0.13464761,0.51225543,-0.9081445,-0.27951774,0.703027,0.27450657,0.9413433,0.751039,0.6694479,-0.27789164,0.09166741,0.6147835,-0.22977376,-0.07064438,0.83910847,0.28174937,0.3958845,0.11157924,-0.9951618,-0.59334344,0.0752978,-0.083567195,0.5605872,-0.7652688,0.26492232,0.3527122,0.9442545,-0.9628092,0.078797005,0.68697435,0.445769,-0.8606518,0.7605095,-0.50076294,0.9395958,0.09264768,-0.6428091,-0.11811677,-0.6169004,0.608867,0.14377062,0.95079625,-0.027641896,0.54636,0.61593044,-0.33499065,0.7592605,0.45401478,0.31278324,-0.9722895,-0.96603435,-0.83315486,0.32154354,-0.15989782,0.10538187,0.821007,-0.13047299,-0.41091484,-0.034410898,-0.28634918,-0.039639395,0.30111495,-0.07950229,0.14608626,-0.94805574,0.5237944,0.22073793,-0.15823936,0.9295273,0.1276443,-0.09751558,-0.40671897,0.021324396,-0.5557008,0.78867936,0.715101,-0.96867776,0.73499084,0.524631,-0.24149418,0.3625517,0.057797194,-0.10208273,-0.21525002,0.31266093,0.101445675,-0.65420794,-0.2268014,-0.40325928,0.7006953,-0.027838469,0.085629225,-0.3610568,-0.4115336,-0.5374806,0.8232622,0.36159945,0.15637589,0.2514224,0.2753024,0.2590704,0.69689846,0.6617844,-0.022001028,-0.63558006,-0.46136355,-0.43636107,-0.1528151,-0.7982762,-0.34694767,-0.65143085,0.43238807,0.5677774,-0.68321085,-0.29746032,-0.12208843,-0.25349307,-0.54855895,-0.05494833,0.38135505,0.39169383,-0.18453121,0.947773,0.40025473,-0.4845755,0.563524,0.033802748,-0.68138766,0.7585168,0.65451026,0.70698404,-0.36939406,0.27135277,0.33773923,0.65578985,0.7978232,-0.27478266,-0.48093748,-0.7424817,-0.61235833,-0.8017435,-0.23889351,0.46524167,-0.887985,-0.55182385,-0.29706478,-0.9317155,0.8057051,0.44179273,-0.30076718,-0.4223404,0.3402567,0.31795335,0.9800868,0.24640322,-0.17392898,-0.16188407,-0.020965338,-0.5526893,0.10786462,0.15487504,-0.064667225,-0.63970685,0.8269017,-0.85454965,0.75874376,-0.47436142,0.05844617,-0.9351485,-0.8444059,0.6271496,-0.883754,0.9172206,0.8536458,0.5204723,-0.3601296,-0.76189613,-0.5448117,0.16038013,-0.18340445,0.02338767,0.8437228,0.28598595,-0.6639364,0.7860408,-0.1620779,-0.88937974,-0.5564604,-0.7540109,0.34389997,-0.6813693,-0.37643933,0.8416331]},{"input_bias":6.2545576,"input_weights":[-0.6258185,0.979372,0.69665146,-0.7390511,0.42384934,0.28767562,-0.30885386,-0.19061184,-0.6033592,-0.61098146,0.80094236,-0.31527352,0.40645456,0.5452583,0.46495295,0.32377458,-0.32382178,0.23289514,-0.030511856,-0.4176438,0.11087346,0.22469997,-0.6063137,0.15565324,0.7602265,-0.6628866,0.085114,0.8380518,0.44417667,-0.34589553,-0.75509405,-0.3617828,0.76310027,-0.3150196,-0.43778133,0.28668022,0.08700085,-0.18200803,-0.6988597,0.7901294,-0.92970705,0.5938897,-0.5484321,0.0536108,-0.12934339,-0.4046831,-0.72082,-0.08852959,0.55708146,0.7195625,0.49471742,-0.27965775,-0.59871346,0.6053103,0.23321259,0.4860296,-0.6017659,-0.9276886,-0.25138777,-0.038729697,0.41667405,-0.8102273,0.94835216,0.070206106,0.97992986,1.0244062,0.8182248,0.90278494,-0.08896457,-0.53410304,-0.879762,0.7105396,-0.21080336,-0.15643929,0.014808074,0.84103286,-0.7197711,0.7497963,-0.040575583,0.9793984,-0.6314877,-0.00813976,-0.053799115,-0.32259378,-0.6243537,0.24988553,-0.56351465,-0.091672935,-0.16706768,-0.036209516,0.65583766,0.8415395,0.004987973,0.23163271,-0.23307872,0.18785119,-0.04579234,-0.07831097,0.5976808,0.5646093,0.6632352,0.6887491,0.41260457,-0.9510071,0.023693085,0.16725922,0.90637565,0.51026464,-0.20772982,0.060331106,0.7472074,-0.49251723,-0.46011424,-0.9246578,-0.7442117,-0.9840934,0.767339,0.9960568,0.1144979,0.6984694,-0.24505639,0.16471577,-0.8020842,-0.033802032,0.064534426,0.6603565,-0.2900715,-0.8122699,0.9326143,-0.3650658,0.503412,0.93789864,0.0048704147,0.55046034,0.8716636,-0.33878422,-0.3454435,-0.6906645,-0.6998391,-0.57700586,0.38160348,-0.28828573,-0.3579073,-0.051577568,-0.72484136,0.9936979,-0.15453076,-0.005128145,0.83214736,-0.43884897,0.063859224,0.8227782,-0.3942392,0.81695604,-0.56808686,0.47042584,-0.0021381378,-0.12841034,0.9551108,0.28384495,0.9726918,-0.57067084,-0.37383866,0.019199848,0.8069527,0.63095355,0.082178116,0.744745,-0.48032284,0.5862441,-0.70982313,0.8554106,0.81105757,-0.978688,-0.80383015,0.5437472,-0.322649,-0.5743873,0.8109019,0.37259412,0.396281,-0.46165133,-0.9127636,0.14041018,0.6366515,-0.2340262,-0.070708275,0.813915,-0.8154626,-0.28895497,0.7188821,-0.29262114,-0.13826513,0.23002219,-0.76595306,-0.561744,-0.89646554,0.65111756,-0.85897136,-0.75250816,0.42013288,0.029144764,-0.63757014,-0.36660814,0.7623954,-0.5164411,0.26367736,-0.87065196,0.4623866,-0.49216843,-0.29903007,0.76493144,-0.12408304,0.8985343,0.44333625,0.34685588,0.55828667,-0.4750626,0.31571174,-0.49826503,-0.15819764,0.8307986]},{"input_bias":7.173268,"input_weights":[0.61618733,-0.98649764,-0.16695857,-0.0132780075,-0.95065546,0.07368016,-0.5252969,0.21955156,0.57077,0.19034839,0.95317614,0.9795649,0.024979353,0.20871162,-0.18433166,0.4327364,-0.16142607,0.5367365,-0.42080593,-0.37404943,0.42773628,-0.60918,-0.33042622,0.71599174,-0.071602345,-0.45603204,0.5967016,0.795604,0.9849837,0.8303299,-0.076087475,-0.2278912,2.378487,-0.16241026,0.5849192,0.3995397,0.36747098,-0.91977024,0.3676319,-0.8466234,0.542119,-0.33867645,0.25672936,-0.67959523,-0.4200937,0.5282383,-0.057131156,-0.16023445,-0.6321173,-0.4009712,-0.5552794,0.60149646,-0.86458075,-0.31144908,-0.8761145,0.45467544,-0.33161393,-0.9397857,0.6542692,0.83749187,0.7856145,-0.04982223,0.86401,-0.23812602,0.3659523,0.6303376,0.4846533,-0.2435536,-0.65581524,0.21150754,0.5522637,-0.16333887,0.506087,-0.22309391,-0.8704678,-0.07978065,0.13044378,0.15549928,0.05626884,-0.2875464,0.4787734,-0.038604032,-0.3277831,-0.77025664,-0.17283382,-0.011607655,-0.23368117,0.57595795,0.17984135,-0.60118246,-0.45483714,-0.6193334,0.8073051,0.0027017593,-0.15018535,-0.5954921,-0.34343696,0.1930027,-0.31608248,-0.20394611,0.29256654,0.012230158,-0.750617,-0.7250819,0.6381507,-0.49578977,-0.40650368,0.21553254,-0.45959592,0.3427074,0.53834033,0.7617979,0.8783238,0.82266617,0.4004047,-0.14260983,-0.38040447,0.030260086,0.7817695,-0.23349333,0.063284636,-0.40952253,0.48993397,-0.36062336,0.25433612,-0.9417894,-0.5436418,0.610955,-0.730438,-0.55535674,0.5968807,0.07134485,0.29190922,0.093375206,-0.8426516,-0.53709626,-0.1033721,-0.909456,0.7614112,0.6823027,-0.33690262,0.9100225,-0.46969414,-0.109522104,0.7783091,0.56112695,0.5708833,-0.47161126,-0.35604835,0.53768826,-0.2151134,-0.06711173,0.4608569,0.965461,-0.70297146,0.10649872,-0.76722765,-0.5947459,-0.17945313,0.043945074,0.01897955,0.76896715,0.5143628,-0.10286689,-0.20398736,-0.94496536,-0.40582514,0.80253124,0.70661974,0.1477673,0.4928019,0.2972157,0.32164836,0.58819723,-0.32375646,0.81722665,-0.36610198,-0.2881763,0.6730561,-0.2683859,-0.7103498,-0.40131545,-0.5964184,-0.68330765,-0.081080675,-0.2684269,0.7585478,0.7482927,-0.30086255,-0.91124845,-0.18970513,-0.48386455,-0.016237736,0.49102116,0.5226457,0.8255079,-0.43383718,0.76892376,-0.10871053,0.7861185,-0.7206178,0.5506873,-0.78117204,-0.25390506,-0.43083,-0.11347008,-0.48948884,-0.36571646,0.26126838,0.39882016,0.94688153,0.6067388,0.9566817,0.17370367,-0.38690138,-0.61111355,-0.46368122,0.5004294,0.514827,0.766206,-0.24116778,0.76124454]},{"input_bias":1.5676788,"input_weights":[0.16493368,-0.24975586,-0.51609564,0.51132417,-0.58377695,0.38116002,-0.39865685,-0.08139467,-0.5329468,0.4397409,0.4377488,-0.26973438,-0.90347385,0.90981007,0.5670781,0.91824055,-0.61532974,-0.8519449,-0.3553791,0.3601303,-0.68431854,0.6419208,-0.9904494,-0.80883646,0.6713016,0.78997374,0.13616753,0.34098482,-0.14904523,0.95878935,-0.20814705,-0.16513109,-0.23059349,0.033287764,-0.017991543,0.810498,0.83513093,0.41854167,0.45413136,0.6348996,-0.31922674,-0.16780138,0.47357082,0.52691174,0.3626342,0.10364914,-0.24570198,0.48844576,0.7281572,-0.90360844,0.047218524,0.61601704,-0.8990915,0.70191747,-0.04632274,0.36326262,-0.44969803,-0.166413,0.85482895,0.5272894,1.0088623,0.9388444,-0.3196781,0.5577853,0.8237468,-0.6535591,-0.83295393,-0.21311934,-0.33288798,-0.81840307,1.0323523,0.92358315,-0.5541165,-0.05426305,-0.014214984,0.49301392,0.34836915,-0.19348383,-0.75129634,-0.86352724,-0.31101865,-0.22326444,-0.6449786,0.53927857,0.155274,-0.45422828,-0.895263,0.0677488,-0.6864594,-0.6791782,-0.41334465,-0.8269323,0.99365723,0.6632612,0.392668,-0.8452184,-0.57372856,0.83363104,-0.77412724,-0.8015859,0.013955593,-0.21702671,-0.18226767,-0.12572956,0.8831954,-0.44169044,-0.706687,-0.7856326,0.27720213,0.18787861,0.691653,-0.75149775,0.052235126,0.9407778,-0.27189422,0.43912983,0.54627466,-0.1680088,0.07088113,-0.7362132,-0.8653436,0.9089341,0.74411774,0.825125,-0.8258486,0.87775826,-0.6865547,0.01094389,0.5684855,-0.7220142,-0.8914652,0.3738892,-0.29773903,0.51851034,-0.8289523,-0.1724906,0.005480051,-0.21579885,0.51021814,0.42707062,-0.47327995,-0.41199112,-0.89085054,0.97790647,-0.49672556,-0.16372395,0.45295143,0.3965552,0.8136668,-0.45047355,0.103999615,-0.40483642,-0.37494588,0.68364906,-0.25795126,0.2469163,-0.2609756,0.8527944,-0.6283934,-0.43720937,-0.7029104,0.6480484,-0.26478434,0.17558527,0.31939578,0.26835895,-0.09802127,0.46554804,0.09964681,-0.3371365,0.2537372,-0.6960373,0.665617,0.44106007,-0.04077983,-0.045725346,-0.71326685,0.9388745,-0.6783798,-0.6587086,-0.36420655,0.33049202,-0.43679523,-0.18394685,0.77994204,0.8147471,-0.8045881,-0.58098674,-0.85283256,0.3297,0.8833723,-0.9510877,0.6271317,-0.009761095,-0.48372555,-0.6596103,0.28334427,0.942744,-0.96448517,-0.44297504,0.7697673,0.5968323,0.4961164,-0.09263754,0.9122391,-0.27808237,-0.37658286,-0.32177448,-0.17304134,-0.34371996,-0.6646304,0.16806602,-0.40451622,-0.51124454,0.9087992,-0.9295831,0.52058387,-0.32663083,0.33853745,0.21711373,0.503458,-0.81233263]},{"input_bias":-3.0926147,"input_weights":[-0.060051203,0.30240297,-0.40320396,0.14097667,-0.75642514,0.68827486,-0.79984784,0.2751596,0.95134425,-0.7222364,-0.1554693,-0.44160914,-0.6080363,0.60897684,-0.8092985,-0.30800104,-0.6600547,-0.808094,-0.579648,0.83542466,0.9313762,-0.6313486,0.21553683,0.6306896,-0.97645545,-0.2932322,-0.96793246,-0.90297055,-0.56046915,-0.93702507,-0.8221364,-0.4859345,-0.8882092,0.28493142,0.58362746,0.5294349,-0.800591,-0.8286042,-0.66138124,0.1787417,-0.30692792,-0.36586285,0.79427123,0.58153296,-0.123281606,0.7081137,0.3019754,-0.007938862,-0.12195082,0.886104,0.098821774,-0.11418566,-0.0040409975,-0.9089912,0.40848407,0.52746606,-0.80110687,0.54777724,-0.91828555,0.23660895,0.026883537,-0.5322398,0.668936,0.9089988,0.10938641,0.3050548,0.5294459,0.7657677,-0.36480165,-0.9787774,0.590615,0.5894762,-0.06534982,-0.72310096,-0.5323643,0.8236114,-0.22590965,0.64627707,0.5764064,-0.6263551,-0.30583188,-0.9149682,0.6165145,-0.5236222,-0.20314826,-0.39973146,0.07234983,-0.35527715,-0.00818611,0.427016,-0.8565359,-0.9631722,-0.13821213,0.79228544,-0.72856784,0.11144233,0.9258914,0.25800633,0.17341423,0.2664559,-0.6418097,0.40121245,-0.09700227,-0.05290389,0.99411273,0.739377,-0.63230705,-0.102777004,-0.8327069,-0.43281746,-0.29456234,-0.43312,0.4700253,-0.67019486,0.043119907,-0.2680335,0.6511879,0.4472468,0.09875369,-0.9222028,0.3758626,0.30356145,-0.8073468,0.9862485,-0.018943548,0.35892224,-0.17079234,0.78038406,0.61699677,0.2712462,-0.88903785,0.80309033,0.029643059,-0.85204864,-0.22562909,0.6865947,0.36027265,-0.39453816,0.009629965,-0.7303288,0.70642376,-0.77022004,0.1924305,-0.8868506,0.111469746,-0.52739763,0.04088354,0.8669231,-0.46940684,-0.6832874,0.4257543,-0.43989372,-0.35929966,-0.4272766,-0.9108143,0.69086695,-0.68273044,0.12499213,0.5379169,-0.43621755,-0.75072,-0.8212025,-0.6459012,0.09478688,0.71789265,0.709378,-0.06792951,-0.6948571,-0.6132798,0.8378546,0.10801673,-0.9955189,-0.07763076,-0.9566076,0.1253345,0.40577078,-0.39138484,-0.64154005,-0.7979877,0.15110636,-0.23280835,-0.4821024,0.4541316,0.85466146,0.6687975,0.82906246,-0.29366255,0.9035802,-0.12812734,-0.11688757,0.15000463,-0.68301797,-0.51466846,0.3026259,-0.36061525,0.97991204,0.81546783,0.91014194,0.87249494,0.118857145,-0.82112384,0.38148665,0.70751786,0.7596171,-0.89357114,-0.33850956,-0.8247924,0.8409102,0.3719628,0.4471407,-0.7003319,0.73031425,0.65867114,-0.4059775,0.75355864,0.79610205,-0.14197469,-0.008567333,0.06757879,-0.6201191,0.57264733,0.6867659]},{"input_bias":-0.1504756,"input_weights":[-0.81018305,0.038738966,-0.82645965,0.8646147,0.8288524,0.7481375,-0.9597342,0.0691874,-0.52108,0.7707789,-0.83480346,-0.24034023,-0.13077569,0.16439939,-0.6666279,-0.58972454,0.28765297,0.6678443,-0.15646267,0.96597266,-0.122226,-0.24863839,0.9588053,0.7933738,0.1658175,-0.8661039,-0.8964722,-0.7108774,-0.70406675,-0.066792965,-0.7286627,-0.8363216,-0.4587164,0.45107532,0.79051685,0.49785924,0.46008444,-0.87196994,-0.25075006,-0.9650011,-0.8038082,0.843266,0.528353,0.08379841,-0.29914382,0.6611471,0.6667889,0.28123045,-0.006303983,-0.24087526,0.26368335,-0.8866897,-0.38984153,-0.30434826,-0.9765761,-0.38500005,0.49377674,-0.8331783,-0.5248729,-0.048071794,0.6829732,-0.45535904,0.04572346,0.924927,0.08152332,0.38665706,0.53180796,0.8622286,0.5208207,0.23736197,-0.7923431,-0.3278945,0.70232195,0.33235344,-0.65309525,0.19950955,0.82641935,0.648584,0.8220957,0.3095668,-0.6628982,-0.745712,0.535251,-0.3436032,0.55005723,-0.8606129,0.044664815,-0.4186759,-0.85912824,0.80791634,0.6114077,-0.6323007,-0.07132138,-0.043180466,-0.9036763,0.8513253,-0.5797062,0.34308362,-0.99030757,-0.1443212,0.6444633,-0.0076060295,-0.19984317,0.8773906,0.848645,0.56761837,-0.2340827,0.4228189,0.706733,0.46008778,0.8755007,-0.874079,-0.3115151,0.70808697,-0.86557245,0.69117975,0.8370874,-0.057284832,0.5043049,0.76072884,-0.51779175,-0.33838797,0.7383609,0.7432878,0.080961466,0.37761807,0.62321115,0.31872392,0.20192695,0.34234738,-0.36151958,0.5562756,0.9090347,0.4251728,-0.18495083,0.25435066,0.9068754,-0.5377073,-0.33876586,-0.10591316,0.35676932,0.007564068,0.9208083,-0.96587205,0.14645457,-0.58315873,0.41880536,-0.23826146,-0.07285023,-0.75933075,-0.73439693,-0.31391788,0.67537904,-0.005272627,-0.111882925,0.9640169,0.32689667,-0.43758106,-0.8523829,-0.94903374,-0.5926521,-0.6653335,0.88403845,-0.8615804,-0.7206502,0.6986642,0.19364572,-0.2907009,0.72311187,-0.30400825,0.38632894,0.47837257,0.73604107,0.26388025,-0.877543,-0.2311604,0.3296473,-0.7270458,0.6282549,0.513957,0.56691,-0.17750621,0.50714993,-0.485085,0.9216659,-0.8573458,0.266042,-0.12483978,-0.3261385,-0.40591264,-0.92024803,0.29368544,0.13605213,-0.68416,-0.5643077,0.44031143,-0.68411136,-0.24776149,0.3715651,-0.43073773,0.92396474,0.4430883,-0.66143584,0.5359061,0.0313313,0.20358038,0.038012266,0.2852614,-0.5219002,-0.8140743,0.76456404,-0.61346555,0.6391933,-0.69579124,-0.6667092,0.71797323,0.34017706,-0.30986977,-0.6670222,-0.2066729,0.14195609,-0.08803868]},{"input_bias":12.930242,"input_weights":[0.54205894,-0.30739522,-0.54503393,-0.241009,0.7187369,0.68482924,-0.060317993,-0.7181146,0.91528845,0.86302257,1.5770129,0.23382878,0.42696857,0.18259907,-0.33325982,-0.6507139,-0.8337693,0.78848267,0.36081982,-0.43112946,0.21975517,0.6149175,0.39688587,0.12296963,0.5919969,-0.11684322,-0.14825702,-0.001292944,-0.037632465,0.06690192,-0.66330457,-0.19506669,2.3037524,-0.574209,0.3968985,-0.7177155,0.23563647,-0.69455314,-0.056776762,-0.6371944,-0.21253514,-0.4557469,-0.854475,0.8904908,-0.29212254,-0.20281434,-0.027639247,0.8519952,0.9354784,1.0096421,-0.47446635,0.8126905,0.36488456,0.61229616,0.2787468,0.4652152,1.0098696,0.93975675,0.84059185,0.45431244,0.4059444,-0.045657597,0.9481906,-0.14436558,-0.60637105,0.3927198,-0.09331252,0.5973566,0.38494927,0.064023435,0.7032371,-0.6709374,0.25629127,-0.09998211,0.15333968,0.68087435,-0.34991387,-0.5239693,0.9689174,1.2249815,0.20563288,-0.12460443,1.2689896,-0.26420617,0.9238103,0.90629804,0.7963168,-0.54854864,0.84638315,1.2205074,-0.41264546,-0.39512604,0.647078,0.4308741,-0.12053394,-0.85787416,-0.59329534,-0.29706383,0.09842682,-0.557786,-0.57539916,-0.9106915,-0.43888164,-0.79823804,0.42403316,-0.015016317,-0.105449915,-0.12117243,-0.050086975,0.8716481,0.5101433,0.016021252,0.2399478,0.4961872,0.87123036,-0.8595226,-0.56775093,0.09598851,-0.26804972,0.14214182,0.9295287,0.69914865,-0.52223134,0.7775099,-0.92001295,-0.27805972,0.83627844,-0.96082735,-0.022652388,0.51488924,-0.06958246,0.52038383,-0.75292873,-0.9046867,-0.7437999,-0.12638664,-0.34946442,0.44721055,-0.8205073,0.31606698,-0.28982115,0.8651886,0.28939748,-0.41299677,0.11403918,0.75867724,0.618361,-0.5810561,-0.9270015,0.48309517,-0.9211135,-0.06886935,-0.2876377,-0.8562584,-0.8277681,0.26640272,0.47560573,0.0746727,0.37127447,-0.72724485,0.8317876,-0.5399599,0.9872105,0.26465344,-0.35157013,-0.9561689,0.85203004,0.033504963,-0.8696501,-0.89170265,0.2337308,-0.8397298,-0.22207999,-0.26014853,-0.5372989,0.9601705,0.8246517,0.60859585,-0.120770216,0.2762394,-0.7622614,-0.4329605,-0.6063504,0.9674797,0.10310149,-0.045018673,0.5428269,-0.13859057,0.15394211,-0.6933315,-0.54648757,0.876178,-0.9908714,-0.46557927,0.13800716,-0.8698144,0.29548216,0.7820158,-0.10578227,-0.3127482,0.7167685,-0.36678362,0.57267165,0.7837379,-0.7153547,0.96660113,0.8863914,-0.07356715,-0.36255956,-0.031542063,-0.043798447,-0.6640847,0.3500793,-0.8234067,-0.81921506,0.09085894,-0.040719032,0.62670875,0.39061332,0.9211848,0.26213598,0.5805912]},{"input_bias":-2.2160318,"input_weights":[-0.23147035,0.30511975,-0.2839098,0.02405262,0.066459656,0.845227,-0.52445436,0.6549821,0.81331897,-0.89267015,-0.890822,0.4133861,-0.45442414,-0.816731,-0.7732456,-0.31403208,0.21308899,0.664371,-0.08518386,-0.20532894,0.24129224,0.006820202,-0.2863443,0.2196374,-0.12471938,-0.00069642067,0.86714745,0.9082854,-0.65137815,0.21408248,-0.34122682,-0.03703308,-0.54466623,-0.2402265,0.90040946,-0.38605785,0.33950233,0.016518831,0.10870671,-0.84826255,0.71038556,0.08654547,-0.6067014,0.016297817,-0.7450585,-0.15009546,0.93592536,0.76020575,-0.6381403,0.64514023,0.46952248,0.20323664,-0.8502207,0.32290754,-0.09200721,-0.14730503,0.52333707,-0.34129196,-1.0326755,-0.6195447,0.91374683,0.49758705,-0.15456131,-0.6530668,0.51797444,-0.8070084,-0.83379614,0.3489395,-0.8314674,-0.9787513,0.47592968,0.27716318,0.407023,-1.0059618,-0.06698913,0.2564859,0.8287389,-0.80236334,-0.27219588,-0.4392997,-0.3871828,-0.25745326,-0.37833902,0.42921907,-1.1396227,0.30110967,-0.9911431,-0.08787092,-0.13322285,-0.72407454,-0.13656092,0.26348186,0.2847482,0.42463756,0.9995794,0.33260226,0.50337887,-0.032322884,-0.50616837,-0.44013858,-0.43632078,-0.5243294,0.6254363,-0.3302989,-0.006962061,-0.81737924,0.37167287,-0.9386518,0.5026877,0.23276353,-0.92456245,-0.9733827,-0.30736876,0.8212054,0.38756227,-0.87920475,0.5654943,-0.19517946,-0.11160207,0.3156371,0.46832252,-0.7739589,-0.17932415,0.04323244,0.9224999,-0.43184257,-0.6394391,-0.5247078,0.9551623,0.027080774,-0.771194,-0.93079066,-0.5472398,-0.66669273,-0.34517455,0.7663188,-0.77482986,0.04299712,-0.47813654,-0.36768436,0.16727018,0.29803896,-0.7353265,-0.6904013,0.4355681,-0.4203422,-0.5443816,0.037118673,0.70458245,-0.49494553,-0.49037194,-0.98538136,-0.11944628,-0.16356397,0.3732214,-0.75167704,-0.79947686,-0.78537655,-0.8013687,-0.9104357,-0.55694747,0.94437003,0.22729445,0.46545672,-0.91228604,0.67760324,0.16695929,0.28948689,-0.5604553,0.3947909,0.93769884,-0.6404221,-0.57594514,-0.481359,0.20471,-0.49206257,-0.39969587,-0.59963584,0.16094756,-0.4957285,0.5438416,0.2903149,-0.91989994,0.70905447,0.10324907,-0.22375345,0.7616787,0.12720108,0.07480812,0.60856557,0.18619037,0.49971843,0.561769,0.834548,0.30261016,-0.87693,-0.36932826,0.9059591,-0.18543506,0.84462357,-0.5952594,-0.8684609,0.25210428,-0.38721275,-0.57341194,0.5777645,-0.5096531,0.6804247,-0.35723424,-0.6414342,0.75259614,-0.529624,0.14558244,-0.5261595,0.40233994,-0.2730403,-0.31797934,0.15822434,0.90962434,0.12477946,-0.8499906,0.10198283]},{"input_bias":0.08290457,"input_weights":[0.061277628,0.04248619,0.06834698,-0.5399773,-0.45773363,-0.72099113,-0.2563398,-0.42105055,0.38979244,-0.56671023,0.08966751,-0.95742655,-0.81432676,-0.047653675,0.77094626,-0.62145424,0.028192759,-0.061906815,0.05736828,-0.8097038,0.13449931,0.81589556,0.8864496,0.23039913,-0.8656616,0.5903535,-0.5503564,0.06664801,-0.4860773,-0.24785924,-0.20073318,0.90634704,-0.26197246,0.69899035,0.4190979,0.69340944,-0.06755519,-0.47610664,0.05575943,0.02743268,-0.48475218,0.9640627,-0.5441508,0.48033118,0.82149,-0.50328207,-0.171293,-0.32913423,-0.63432854,-0.752662,-0.12979104,0.3645524,-0.45991862,0.8272587,0.20891795,-0.8706375,0.42742962,-0.064021416,0.12435419,-0.46105325,0.075977765,-0.77287436,0.49784,-0.23219587,0.41798216,0.2364667,0.07547778,0.99886084,0.004144794,-0.12743859,0.8571783,0.49525392,-0.3577979,0.16608447,0.18420431,0.10754896,0.5477342,0.30765328,-0.18460882,-0.38315153,0.45492703,0.76301074,-0.22682881,0.4815567,-0.1000682,-0.6965092,0.8550582,-0.812912,-0.23009688,-0.36283433,0.7225541,-0.95714355,-0.08463958,0.15219712,0.041036367,0.67193246,-0.09576535,0.6919031,0.6232891,0.3241849,-0.060117483,-0.6131339,0.15872955,0.04550171,0.7628305,-0.5560019,0.9057934,0.19205284,0.4365306,0.65874815,0.94023085,0.13664961,-0.032937765,-0.9469657,0.9931536,-0.67636275,-0.23170352,0.39034224,-0.36631155,0.7578399,0.20601964,0.09088588,-0.5642843,-0.81247115,0.087745905,0.59455824,-0.9263742,0.9702432,-0.40140438,-0.83449006,-0.8507464,-0.5264685,-0.51689935,-0.8852196,0.09061098,0.6250682,0.047967434,0.20220947,-0.7691021,0.7897482,0.79720235,0.42809057,0.092099905,0.80055165,0.9321945,-0.20190644,0.42291975,0.9108944,0.86944914,0.26275206,-0.70702267,-0.75864506,-0.6406069,0.39045715,-0.11553216,0.3021803,0.8684621,-0.23366499,0.33228612,0.938638,-0.9900532,0.9093766,-0.8593142,-0.890892,0.31261063,-0.5844965,-0.7555618,-0.3632543,0.75180006,0.49311876,0.9778147,-0.45082092,0.9403026,-0.51547956,-0.16580844,-0.56005454,0.5726001,0.87144876,0.104637384,0.15332603,-0.11847973,-0.077148914,0.7803533,0.26493907,0.8934624,0.8161819,0.32092452,0.8217523,0.7202308,0.3154776,-0.7643008,-0.23372245,0.81602097,0.38974428,0.73872924,-0.39713335,0.58748674,0.71301436,0.6823621,0.63476944,-0.12456012,-0.28568983,0.16466999,-0.53850937,0.21787643,0.98679495,0.12215662,0.03563428,-0.32607293,0.19799972,0.09368944,0.75916886,0.71565676,0.05660963,0.012438774,-0.5589545,-0.9498663,-0.6236067,0.8352852,0.78248143,0.3886435,0.69182086]},{"input_bias":13.79347,"input_weights":[-0.5201788,0.16004562,0.29627252,-0.8174832,-0.19736385,-0.027000427,-0.6818621,-0.8863549,-0.85235405,-0.04498005,0.15616877,0.5972204,0.21897483,-0.25159836,-0.1319902,0.7531619,-0.27841425,0.98195815,-0.7400849,0.743078,-0.9242828,-0.077819586,0.8577256,-0.12561035,-0.5949304,-0.6098511,-0.14006376,-0.17442632,-0.27858138,-0.9417083,0.035557747,-0.37147164,3.9443243,-0.750942,-0.17287946,0.95332575,-0.20290947,0.7818787,0.79279613,-0.009424925,0.17965388,0.24135637,-0.19744897,-0.711144,0.012555097,0.899503,-0.5946681,-0.1667366,-0.15295628,-0.40911198,0.4533973,0.66229534,-0.81235343,0.9998612,0.086058326,0.09601192,-0.18011573,0.3580469,0.24606983,0.25932887,0.6829309,-0.6309518,0.18199159,0.33603477,0.24554615,0.5092438,-0.37500784,0.59519714,-0.27256474,0.9336921,-0.23629755,0.9994811,-0.6367733,-0.54724115,1.1054431,1.1839362,0.60881364,-0.011577261,-0.6778093,0.1067741,0.8621116,0.7023393,1.3188592,0.53521657,1.1747777,0.6618888,-0.07984739,1.2369133,0.26224166,0.3289391,-0.33618793,0.85459703,0.044508174,-0.66185427,0.80761766,0.57616186,0.85282993,-0.8991051,-0.90545535,-0.082630396,-0.99670887,0.43736362,0.63039875,0.7801266,-0.9900596,0.8708689,0.5978923,0.36102796,0.37733293,-0.64337564,-0.2067411,0.5094056,0.1334467,0.90665364,-0.4815464,-0.026778936,0.2855301,-0.71362066,-0.92131877,0.21190286,-0.1314013,0.660759,0.5383718,-0.52484775,0.6851933,-0.877949,0.35025835,0.53962564,-0.8375025,0.119350195,-0.8998165,0.4468224,0.07106209,-0.009976625,-0.41202235,-0.310848,0.4486518,0.57056355,0.75512123,-0.27789378,0.5752008,-0.5134506,0.43989563,-0.059234858,0.159168,-0.41544032,0.049220562,0.18895888,0.042223215,-0.5356369,0.32884288,0.7991121,0.90456986,0.29827356,-0.02139473,-0.67893004,-0.8853493,0.20753622,-0.49065018,-0.58556557,-0.0397954,0.69917417,0.042249203,-0.21676064,0.1474104,-0.40523815,-0.09479618,-0.6724529,-0.37105322,0.05004382,-0.31987643,0.5713062,-0.37621522,0.6400204,-0.31650114,-0.4139936,-0.13752675,0.73605657,-0.16564107,-0.54528284,0.06158495,0.5710952,-0.3589809,-0.6405251,0.4090643,0.82778597,-0.4855821,-0.7806132,-0.35759068,0.70029235,-0.72693276,-0.76950717,-0.34964657,-0.4181323,-0.47544718,0.6068754,-0.267807,-0.95295453,0.58333397,-0.19676924,-0.40635443,0.9986317,-0.44440985,0.0881722,-0.4983232,-0.68138146,0.28883958,-0.039213657,-0.91489077,-0.35178423,0.5384972,0.71980023,-0.017841578,0.5200205,-0.30841517,0.8579066,-0.5266967,0.80776286,0.47054768,-0.2744658,0.2007618,0.8698225]},{"input_bias":10.2970705,"input_weights":[-0.81383634,-0.9460578,-0.10467696,-0.13835216,0.52156544,0.2380085,0.81277704,0.25344563,-0.020225048,0.485255,0.29700434,0.97385263,-0.84486556,0.5633817,-0.12098527,0.7835903,0.15690136,-0.073266745,-0.16491055,-0.36468387,-0.9519849,-0.26344895,0.3415599,0.7718947,0.41133142,0.8196311,0.7038963,-0.38548446,0.028945923,-0.2592504,0.2555611,-0.34029984,2.0537848,0.70435953,-0.4151821,-0.30149674,0.9364693,-0.5669079,0.104907036,0.88574576,-0.5443342,-0.6279845,-0.94452,-0.40745115,-0.3145263,0.69228315,0.89756775,0.6615863,0.006920499,0.30059606,0.72648543,-0.8604332,0.40838945,0.33476722,-0.18389045,-0.56870127,1.0853397,-0.66327524,1.1767371,-0.91476333,0.9444907,-0.08334493,-0.22107328,0.27373394,0.85908306,-0.3771101,-0.08498781,1.0288496,0.87293315,-0.64166284,0.6614357,-0.3107156,-0.56671476,-0.049129732,-0.2540904,-0.20941503,-0.12203306,0.3637299,-0.28010443,-0.71096253,-0.42863494,-0.6200786,0.1778233,-0.42331117,0.45715722,1.2405248,-0.27673894,0.82330555,-0.20488562,0.8480038,-0.7868886,0.5755623,0.98264474,0.04963684,0.5397098,-0.68092227,0.05455923,0.07375693,0.92835164,-0.8918631,-0.7847662,-0.21443963,0.6489191,-0.075307846,0.42022943,0.5954039,0.20963216,0.9105537,-0.89832544,0.7301159,-0.030082941,-0.6539905,0.15470767,-0.8320682,0.014275312,-0.69839454,-0.21051836,0.67500067,0.37667346,-0.42261624,-0.50840545,-0.72822213,-0.57973886,-0.0037806034,-0.96598864,0.56112933,0.26259303,0.42130494,-0.20183206,-0.026235819,-0.68166447,0.8098054,0.9771607,-0.99434257,-0.8432846,0.9763503,0.951988,0.21306062,0.24725032,-0.12186265,0.95008636,0.12853551,-0.924963,-0.21549821,-0.3418498,0.14091516,0.38665533,0.62079406,0.86326647,0.0016536713,0.34812546,-0.121864796,0.28456998,0.77366495,0.93176985,0.7733624,0.92796946,0.5107212,-0.8672128,0.6639581,0.4983375,-0.9705944,0.3049302,0.6159644,0.12447572,-0.96907306,0.7989259,-0.76106,-0.4830444,-0.051419497,-0.45250392,0.67746353,0.16237545,0.33880877,0.47942066,0.9500344,-0.5319028,0.3351252,-0.6724224,-0.32144284,-0.27367687,0.8237953,-0.64278865,-0.36711383,-0.19789505,-0.19639277,-0.8655753,0.37872386,0.53865767,-0.5204551,-0.023646593,0.30191064,0.4161086,-0.15599418,-0.7720523,-0.5302806,0.8664682,-0.12163091,0.41738725,0.2447133,0.009295225,-0.22525907,0.5776422,0.3622501,0.9238844,-0.24474716,-0.11608577,0.8599696,0.5620854,0.31882262,0.04165101,-0.6225593,-0.60967255,-0.40859914,-0.5647223,-0.62235975,-0.87317085,0.95951533,0.0535717,0.8677323,-0.4618218,-0.24888277]},{"input_bias":10.767167,"input_weights":[-0.349869,0.92877555,-0.24292946,-0.8800883,-0.25569248,0.95068026,-0.90753436,-0.89997673,-0.28975344,-0.9829769,0.5335532,-0.50158477,-0.8408022,0.1308136,-0.49143624,-0.17477846,0.50951886,-0.61754274,-0.99783635,0.53512263,-0.8446927,-0.46215582,-0.59205604,-0.12002325,-0.71979046,-0.26332927,0.18634796,-0.14388847,-0.29560995,-0.9626453,0.49297166,-0.76026964,3.540674,0.99613094,-0.9006696,0.62428474,0.34608078,0.31014132,-0.16758776,-0.008797169,0.02448845,-0.10558987,-0.6047194,0.36078238,1.0025212,0.6720526,-0.26038784,0.9938209,0.5722911,-0.7371939,0.24050951,-0.13121931,-0.012139622,0.25162083,0.62437457,-0.20004411,0.76723653,0.92829716,1.2180725,0.8487704,1.0090178,-0.37450522,-0.077703945,0.8891489,-0.050275683,-0.29314625,0.34148568,-0.13153088,0.8757308,-0.5992252,-0.7455015,0.6341991,0.777866,-0.68281615,-0.71474826,-0.08058382,-0.36995098,-0.033143736,-0.52337843,-0.3337086,0.6399539,-0.3057894,0.7274898,-0.7483732,-0.2209946,-0.007429222,0.7374292,-0.66272926,-0.9558091,0.82142884,0.45467213,-0.118065506,-0.33956417,-0.017151594,-0.7948258,0.3486402,-0.38075495,-0.57487035,0.63605165,-0.3663721,0.14069843,0.039865494,-0.3311975,0.10705876,-0.5717921,-0.6983814,-0.87453175,0.81166816,0.9157994,0.19193006,0.6053784,-0.05048132,0.4706633,0.882144,-0.95393324,-0.31533003,-0.8843837,-0.015644312,0.6379473,-0.9884286,-0.993942,0.92839885,-0.5919695,-0.096273184,0.45226502,0.18720531,-0.35044932,-0.54436326,0.9585302,0.9513557,0.97691107,-0.8840027,0.9671197,-0.7703488,-0.33519363,0.4555788,0.56248546,0.87109184,0.44213533,0.38961577,0.6465368,-0.6360471,0.7467482,-0.69805384,0.06002736,0.45364308,0.4966302,-0.22627187,0.8913126,-0.42179537,-0.0008134842,-0.6945007,0.86003137,-0.4234476,-0.5603204,-0.07848024,-0.15097165,-0.54642916,0.79022026,0.6663804,-0.14231372,-0.6578355,0.012449741,0.73151875,-0.6959214,0.8764217,-0.16371942,-0.28473115,0.06991434,-0.46118808,-0.2874887,0.945318,-0.87120366,-0.1499331,0.8253014,0.48886752,0.6363349,-0.43152857,0.99875045,-0.9494443,0.08262992,0.1733656,0.74755406,0.46175003,-0.57382846,-0.07177973,-0.35064602,0.80359197,0.1925075,-0.050371885,0.52812934,0.40738845,0.878386,-0.525259,-0.97934914,-0.63731456,-0.83658075,-0.6856909,0.5672221,-0.05935502,0.9239304,-0.92026186,-0.07054925,0.80969954,0.45755076,0.71355677,0.60930204,-0.74282885,-0.6472633,0.9872036,-0.8594899,-0.5739045,0.960161,-0.4491577,-0.8043158,-0.24989581,0.7902763,-0.003745079,-0.38490748,0.2490542,-0.6353481,-0.36432266]},{"input_bias":2.1984231,"input_weights":[0.23784328,0.60294676,-0.2055285,-0.08114886,-0.7390356,0.08829713,-0.09863138,-0.99956226,0.46489692,-0.7890954,-0.00868001,0.47372103,0.6284404,0.63430834,-0.8954599,-0.6483915,-0.28365827,-0.018667698,0.8137536,0.68645835,-0.7311201,0.40602946,-0.43622136,0.45809293,0.8703468,-0.14763618,-0.7497535,-0.8344667,0.14321637,-0.5990362,0.008133888,-0.21029544,0.92411035,-0.48690796,-0.07694507,0.34876728,0.25240588,-0.37494183,-0.7809961,0.4340346,-0.6789973,-0.38174558,0.8686161,-0.42329454,-0.7235787,0.73370934,-0.13052796,-0.89276147,0.097297534,-0.7527621,-0.29226476,0.485064,-0.251385,0.88237417,0.09619401,0.7404936,-0.026378872,-0.50666434,-0.16516368,-0.09717232,-0.06508231,-0.07771778,0.5292353,0.19302835,-0.41669187,0.83012533,-0.17916866,-0.070403986,-0.5037193,-0.58473974,0.39645568,0.83163416,-0.516582,0.26927322,-0.4804698,-0.34955314,-0.441022,-0.7326895,0.7804911,1.0392656,0.06454379,-0.29065856,-0.37305632,-0.14441906,1.0750266,0.8953185,-0.5281565,1.0048475,-0.0020006904,0.58009136,0.32525554,-0.4925989,-0.08140863,0.20896626,0.83846116,0.82568383,-0.25011206,-0.32859516,0.25777245,0.26181817,-0.76422906,-0.7339189,0.7538402,0.08252263,0.013691425,-0.1489675,-0.83454967,-0.631577,-0.69346046,0.1181066,-0.95055556,-0.19180965,-0.30424547,0.7497127,-0.19531584,-0.9959829,0.2621014,-0.009810448,-0.566715,0.21168208,-0.33466125,0.45365882,0.39620662,-0.056200743,0.20636082,0.14173698,0.43129945,0.36279726,-0.31558466,0.32167268,0.3572328,0.2868638,-0.7570746,0.2017982,-0.9801209,0.22210073,-0.37190604,0.94872594,-0.68215203,-0.27267075,-0.80701494,0.88259697,0.0630815,-0.51165223,0.24372196,-0.97899437,-0.62746,-0.7631693,-0.1841414,-0.48855495,-0.219275,0.4263389,0.20472884,0.7612653,0.0039269924,-0.89265203,-0.07043576,-0.39675832,-0.74996185,-0.11349869,0.78768253,-0.35408258,-0.30073118,0.22814822,0.58813477,0.366055,-0.53723335,-0.34238935,-0.13778949,-0.77631474,-0.41047573,0.3964038,-0.19850874,-0.28718925,-0.8207288,0.5333524,0.38367772,-0.6817169,-0.42261028,-0.56296134,0.066295385,-0.93689036,0.70981884,-0.96583796,0.41437292,0.65416956,-0.19349122,-0.03880453,0.37058258,-0.16886187,0.781929,-0.8460405,-0.664567,0.20402789,0.95894957,0.22673368,0.06620312,0.9062886,-0.14093256,0.57480335,-0.9308939,0.45560002,0.5944674,-0.8266778,-0.53268313,-0.897629,-0.816767,-0.47668123,0.0983181,-0.7658055,-0.88375187,-0.41490293,-0.0606122,-0.9364257,-0.2656672,-0.80247736,-0.24751544,0.97056127,-0.92463183,-0.93394375,-0.38953114,-0.6756048]},{"input_bias":4.723423,"input_weights":[0.89859796,0.23171234,-0.064294815,-0.6072602,0.84619784,0.15502882,0.1198504,-0.16392708,-0.4339769,-0.75413847,0.82710373,-0.09040189,0.7611251,0.37903905,-0.49320817,0.96011496,-0.8577771,0.21632338,-0.509634,-0.77003646,0.74816823,-0.579674,-0.15823531,0.009901285,-0.6106901,0.021625757,0.09474516,0.83938503,0.70364976,0.7404928,-0.24521613,0.07800245,0.4950585,0.30353737,0.49180794,-0.68229437,-0.9662733,0.47240567,0.94032836,0.8889365,-0.90725875,0.66419315,0.21256232,0.397542,-0.50407636,0.7283747,-0.2943608,-0.024747849,0.075417966,-0.67250043,0.54605377,-0.31898052,-0.22093084,0.8200757,0.78331274,0.48107666,0.5165279,0.39822534,0.92318934,-0.28894728,-0.93728274,-0.5509605,-0.9685729,-0.013594732,0.2476688,0.4599658,0.64276356,-0.71027875,-0.75648606,-0.6984976,0.25131497,0.5294322,-0.8058865,-0.7964877,-0.81892306,0.91530454,-0.8394391,-0.40323776,-0.20771246,-0.41160455,0.6025023,0.6993702,-0.6846008,0.2255402,0.5896815,-0.65193176,-0.65576947,0.009680718,0.73716784,0.8145807,0.9806793,-0.15138514,-0.7345492,-0.5225229,0.11098957,0.99668574,-0.18912649,-0.8086865,0.5578792,0.063966274,-0.8767922,0.23997164,0.022633791,-0.32198453,0.39189076,-0.7064104,0.44584918,-0.7760458,-0.5729177,-0.3214655,0.901443,0.66820526,0.09162974,0.12193847,-0.9776223,0.6929314,-0.6890328,-0.7104261,0.15868258,0.5961304,-0.7328813,-0.88682914,-0.07848883,-0.87897444,0.83875346,0.32589006,0.91229415,0.04135585,0.46603823,0.0024957657,0.9794767,0.3865447,0.7465069,0.15206647,-0.35336804,-0.4738891,0.93629813,0.32973194,0.76586795,0.12987709,0.72085285,0.3153348,-0.20321131,-0.49946833,0.34606314,0.204947,-0.79535604,0.017768383,-0.7802546,-0.4081223,-0.6138642,-0.98605704,-0.5934119,0.004814625,0.12918162,0.023098707,-0.05807209,0.6545069,0.42246485,0.8670094,0.5205748,-0.9671109,0.45354128,0.73823476,-0.44408417,-0.92183185,-0.8212309,-0.5500696,-0.56178856,-0.76672816,-0.5785525,-0.99568486,0.98453283,0.60296845,-0.5607908,0.83374333,0.6988139,-0.4173777,0.97360826,0.31363177,0.96305275,0.96297574,0.040203094,-0.4466977,0.6554868,0.9326546,0.07869506,-0.054919243,-0.17218518,0.50868154,-0.33464813,-0.44489908,0.9472413,0.6157031,-0.5153742,-0.5960243,-0.56665635,-0.75405645,-0.43846416,-0.49362922,-0.5743859,-0.39954734,-0.57259655,-0.49720716,0.6384704,0.6264858,-0.6344619,0.5202389,-0.4500382,-0.7707138,-0.6328261,0.10832262,0.15110588,0.8190849,0.82625866,0.17263222,-0.6962373,-0.37779593,0.96231794,0.5705967,-0.80949426,-0.5966928]},{"input_bias":6.597466,"input_weights":[0.38925886,-0.75967646,0.27038074,-0.34647107,-0.3907249,0.0041394234,-0.52214265,0.2582178,0.1928742,-0.88525677,0.7608469,0.4783206,0.62799287,-0.043419123,0.25877142,-0.4546287,-0.53645754,-0.70286703,-0.7413032,-0.19625068,0.358279,0.47491503,-0.5785248,0.39416218,-0.861305,-0.5586505,0.76725674,0.21196246,-0.7628274,0.27465844,-0.5107653,0.4086628,0.53157157,0.61669755,0.939378,0.29764342,-0.68572044,0.8814645,-0.8937633,-0.65668607,-0.069230795,0.67630005,-0.5266733,0.7139363,-0.9269588,-0.6559653,0.6963526,0.52183104,0.07462025,-0.9187361,0.37145203,0.26376155,0.64172745,-0.29536992,-0.45153907,0.019983139,-0.1206679,0.58859,0.6423986,0.9966898,-0.019530527,1.0722106,0.42131203,0.5532033,-0.8688919,0.51232684,0.39213446,-0.07647187,0.7762097,-0.49681816,0.393215,0.3957982,-0.5029987,0.22267026,0.78409684,0.09315926,0.4004349,0.5593884,0.75314695,0.06805183,-0.72596717,0.09384342,-0.7943428,0.6644675,0.8030939,0.15812254,-0.94338346,0.1188259,0.080040984,0.8013159,0.06504513,0.079699494,0.49349907,-0.25072336,0.4971416,0.988724,0.8274665,-0.5538416,-0.26716256,-0.13213015,-0.8935883,-0.88807464,-0.19968343,-0.28583336,0.84064937,0.47316003,-0.90766287,-0.3836975,0.13393712,0.9161222,0.031875372,-0.84179664,0.5871341,0.2623222,-0.65334797,0.69612026,-0.29363346,0.98144245,-0.38908195,-0.9175832,-0.3096273,-0.38034344,-0.7750826,0.33811092,0.3341074,0.8782635,-0.10063553,-0.1555922,-0.83311844,0.026971817,-0.09169245,0.41165042,-0.027098656,-0.49296713,-0.3377123,0.59868693,-0.25665116,0.8983705,0.9870939,0.9856951,-0.22474933,-0.39397454,0.17342567,0.114360094,-0.68903995,0.8005588,0.05364847,0.75644016,-0.5473285,0.8488958,-0.39221907,-0.71048975,0.812819,0.3702917,0.07005167,-0.033380985,-0.483701,-0.8569603,0.8584666,0.07835293,0.44593883,0.95778465,0.1738863,0.3910432,0.14819813,0.78499126,-0.22667265,-0.8429134,0.7875867,0.38351297,-0.5032506,-0.4417374,-0.03976941,0.82581687,-0.47631645,-0.7405319,0.36131692,0.99954104,0.56963754,0.46952367,-0.059926033,0.8104892,0.32535315,0.018867493,-0.25150537,-0.884331,-0.6897578,-0.50989604,-0.15492654,0.30503988,-0.36485028,0.9128039,0.93808055,-0.16576791,0.6706157,-0.55494523,0.4070258,0.6905296,0.28645897,-0.87618446,0.4529314,0.70028925,0.7710533,-0.45261788,0.6376972,0.34375858,-0.21945143,-0.31170678,0.74678516,-0.9157908,0.7947264,-0.35440516,0.72763705,-0.4272964,0.36345744,-0.5111513,0.40433884,-0.9243903,0.6365688,0.473881,0.01445508,-0.24204636]},{"input_bias":0.5452395,"input_weights":[-0.28281307,0.7682507,-0.38273692,0.57101965,-0.22804785,0.53538966,-0.525748,-0.47305894,0.5892093,0.35261416,0.31149125,-0.38002467,0.41713643,0.8476658,0.8257153,0.9616573,-0.9147904,0.98217463,0.79612327,-0.8480067,-0.28883862,-0.86690426,0.3310573,0.563292,-0.21695948,0.47124648,-0.7042017,-0.7712295,0.90272903,-0.9024787,0.74928546,0.9709835,-0.7744741,-0.38295674,-0.2584741,-0.32118344,0.6174412,-0.17923713,0.2278235,-0.19892263,-0.44155884,-0.92481995,-0.43798137,0.9192443,0.5342918,0.4779427,0.5957364,0.2656641,-0.5354835,0.6565113,-0.9607238,-0.82267195,-0.24389978,-0.0814089,0.3273277,0.68165785,-0.7998346,0.64883906,0.03902052,-0.5603725,0.54381245,-0.6689377,0.3844606,-0.5013378,-0.67486835,-0.42477357,-0.29363665,-0.7338624,-0.3266605,0.6953185,0.08900965,-0.2385562,-0.6178806,0.91715866,-0.14792208,-0.2286539,-0.8465699,0.44650963,-0.080010325,-0.78103113,-0.5156513,-0.23665044,-0.63087654,-0.25951463,0.17087045,0.8003285,-0.2728333,-0.04240044,-0.9043019,0.32574654,0.5985429,-0.037951484,0.64264554,-0.77642536,0.13695478,-0.1730771,0.42956305,-0.9271593,0.025931597,0.8100414,0.21469903,-0.9116957,-0.9811089,-0.86100125,-0.4967363,0.12796044,-0.85093546,-0.67176676,0.21819067,-0.059515,-0.6931479,0.09399009,-0.3454857,0.27490187,0.4077952,-0.053680897,0.59662294,0.35085273,0.34953856,-0.31488347,-0.6879151,-0.09371042,-0.48957038,-0.35816264,0.50749135,-0.23534584,-0.8906071,0.45642233,0.6111293,-0.7564392,-0.115945816,-0.3759396,-0.49843287,-0.85522556,-0.4365437,0.17915988,0.66870666,-0.08730769,-0.12769794,-0.92760205,0.029164553,-0.1781857,0.65191317,-0.081318855,0.17532325,-0.19753242,-0.9240918,0.22795129,-0.8115232,-0.7189069,0.8972535,-0.75792575,0.3758092,-0.5676546,0.3227141,-0.37883592,-0.2379713,0.01873064,0.8382518,0.44103384,0.22582793,-0.65750337,-0.4778278,0.1662736,0.6050663,0.37379813,0.7171309,0.9315834,-0.6411605,0.102916956,-0.83998513,0.3068986,0.51640487,0.1633966,-0.29644775,-0.87346935,-0.09893823,0.6214576,-0.6624882,-0.2536261,-0.88101244,0.72930765,0.092066765,-0.36955476,-0.58437514,0.26508164,0.02673912,0.70090556,-0.101849556,-0.916435,-0.33415985,-0.3584454,-0.009068012,0.9379015,0.3130288,-0.98985696,0.47505355,0.6476655,0.11411905,0.5098486,-0.69664454,0.26293635,0.71162915,0.84325266,0.8737736,-0.3919201,0.46113753,0.5965936,0.28426814,-0.42498732,0.06330633,-0.6388297,-0.112648964,-0.14884567,0.884356,-0.5094042,-0.4008689,-0.082956076,0.9519782,0.058067083,0.9887092,0.59441996]},{"input_bias":-8.513471,"input_weights":[0.56561446,0.39681602,-0.29889417,-0.9529288,0.39657092,0.97253585,-0.6598501,-0.30063462,0.28950953,-0.95766187,-0.453347,-0.39726424,0.27038574,-0.47150016,-0.7714386,-0.1761303,-0.6347015,-0.38773704,-0.28807425,0.9173753,0.5442567,0.801373,-0.4808283,-0.93344307,-0.14371586,0.25752187,-0.6051285,-0.92630196,0.09577274,-0.32597923,0.28503895,0.7156942,-1.3733758,0.61408186,-0.9170599,-0.28806067,-0.5658045,-0.4997666,0.11371112,0.7700608,-0.9484978,0.19721866,-0.25184226,-0.26770854,0.5778184,-0.073063135,0.04110763,-0.108819485,-0.48020652,-0.2843373,0.35800436,-0.8648432,-0.4899683,-0.7454674,-0.7643766,0.7787877,-1.0563803,0.55057067,-0.7014317,0.78434336,0.5783113,0.68626297,0.6614786,0.31209806,0.5016358,-0.62836546,-0.82588613,0.44705376,-0.8645553,-0.9361677,0.0143193845,-0.2069064,0.4499005,0.004623802,-0.8195763,0.15240027,-0.01003803,0.03894229,-0.6143761,-1.1781029,-0.8912137,0.27302918,-0.99030554,-0.07740481,-0.6986201,-0.054513197,-0.5446308,-0.42574435,0.8857576,-0.0848238,0.73474437,0.4920922,-0.14119352,0.69871974,-0.5011785,0.38887095,-0.48358297,-0.7782986,-0.5521085,-0.5755775,-0.8935137,0.5656004,-0.8201623,-0.15290523,-0.4657755,-0.5304589,-0.47223735,-0.2191546,0.056759834,-0.9273157,0.024180174,0.23698354,0.8715806,0.8529687,0.88211584,-0.22118855,0.55503917,-0.0016412735,-0.80048656,0.8022711,0.6334679,0.65761924,0.36365104,0.69696283,0.21208096,-0.27024007,-0.32479215,0.9320471,-0.20642781,0.9251132,-0.31356382,-0.4855287,-0.030436277,0.23671699,0.5744724,0.19036293,-0.56965566,0.52566624,0.49554086,0.28321052,-0.4722948,0.51409817,0.31917024,0.4627645,-0.086028814,-0.50980663,-0.7690346,0.9542389,0.3461795,-0.70136404,0.70272565,0.11948538,0.82780695,0.40053797,0.11836195,-0.597939,-0.6095848,0.69900084,0.34678793,-0.21731853,-0.96576834,0.7476771,0.26306605,0.15530682,0.720381,-0.5098517,0.013703346,0.49153376,0.46597576,-0.4160235,-0.7162154,0.2638564,-0.8458166,0.8792193,0.8725989,-0.33691978,-0.7334807,-0.84362483,-0.42198205,0.09885144,-0.9041257,-0.33994508,-0.80681825,-0.13553357,0.8912785,-0.117482185,0.6443665,-0.46910715,-0.6510446,-0.77362776,-0.500046,0.8674576,0.8721328,-0.10700798,-0.07809663,-0.8600421,-0.735955,0.12366772,-0.4373138,0.4553573,-0.46005464,0.42605948,0.6613562,-0.19816637,-0.9966769,0.9438176,0.108897924,-0.8802302,0.6250179,0.9638634,-0.23807311,-0.32535553,-0.78842115,0.20460033,0.6574054,-0.5061152,0.06798816,-0.11173272,-0.01416111,0.23202896,0.38640928,-0.26424718]},{"input_bias":-4.802628,"input_weights":[0.37126708,0.8554075,-0.7249057,0.40610576,0.6113806,0.96531796,0.10496926,-0.080485344,-0.92418885,-0.41173434,-0.83190423,0.8263676,-0.45436263,-0.52710295,0.37819767,0.8742354,-0.08287954,-0.5533328,0.6638675,0.10270214,0.99064755,-0.17324829,0.2817421,-0.6060958,-0.63571215,-0.55577993,-0.88485646,0.32554364,-0.05691099,0.60805464,-0.31403494,-0.8854394,-1.2528491,-0.71542335,-0.35830498,0.94410396,0.91518116,-0.04165125,-0.5460808,-0.00034737587,-0.06714606,0.99775267,0.58472157,0.9906361,0.3709986,0.97387743,0.012646533,-0.008556366,0.48597828,-0.19245176,-0.5016803,-0.99409795,-0.19454359,0.9380689,-0.9938287,-0.77708393,0.7355902,-0.95312375,-0.895696,-0.9471624,-0.81755877,-0.121470384,-0.9129221,0.35435343,0.72837895,-0.7682905,-0.16053692,-0.09434185,-0.9150616,-0.91246724,0.084599264,0.7886791,0.3315846,0.30317795,-0.18017578,0.3012561,0.05573378,-0.32906535,-0.6833742,-0.2008061,-0.7476982,-0.9263322,-0.24762581,0.65926445,-0.14696391,0.114564806,0.5592239,-0.57303727,0.77709806,-0.46702126,-0.32862565,-0.7894082,-0.71355134,-0.29514003,0.57933736,-0.04110551,-0.4184637,0.07532287,0.63916135,0.41479278,0.43436193,-0.5812416,-0.53497624,-0.9119408,0.12617946,0.28307295,-0.1388259,-0.69509935,-0.18808293,-0.4819765,-0.6414921,0.8872769,0.33327055,-0.84456325,0.69651365,0.7706821,0.965502,0.07558346,-0.66702366,0.7238314,0.38503098,-0.50438285,0.076882124,0.44925094,0.35122752,-0.07583761,0.7990742,0.11463404,-0.9582474,-0.268039,-0.9621451,-0.12700748,0.0045895576,0.5649419,0.8762176,-0.40673518,-0.1707952,-0.797673,-0.84564257,0.3971548,-0.16173553,0.6152382,0.21426177,0.080387115,0.023287058,-0.36604595,-0.9330392,-0.5672054,0.15297222,-0.10676575,-0.5640876,0.32737303,0.92029595,0.7885709,-0.9194319,0.06474614,0.4819622,-0.097002745,0.38713002,0.46403527,-0.65010166,-0.72855306,0.7628224,0.08951378,0.20461798,0.89753866,0.23928261,0.39458537,0.043763876,-0.88396645,-0.6938994,-0.8728585,0.24348736,-0.2998674,0.32686567,-0.66519165,-0.85616016,-0.3655181,-0.9312837,-0.056595564,-0.19611192,0.4891069,0.28238153,-0.90308166,-0.20688176,-0.5921557,-0.08276439,-0.90886474,-0.60120416,-0.78798795,-0.6371331,-0.50237894,0.36210656,-0.7271378,-0.55934596,-0.15617418,-0.99066234,-0.07287383,0.71894383,0.91911674,0.95393825,-0.02828002,-0.30523086,-0.41203022,0.65607166,0.039990902,-0.23868442,-0.34076715,0.3556249,0.20816374,-0.95537066,0.15965939,0.6179235,-0.20474792,-0.9544525,0.6757767,-0.72733927,0.34870553,0.545665,0.44249344,0.7325566,-0.47664237]},{"input_bias":1.8445579,"input_weights":[-0.97762585,-0.04696679,-0.4225459,-0.9398446,0.36434174,0.49649405,0.94146466,-0.71844125,0.4563365,-0.3851843,-0.9255388,0.04919243,0.6682136,-0.6039064,-0.029045343,0.6715565,0.9957478,0.18685722,0.50240946,-0.438442,0.8143904,-0.047557354,0.09850383,-0.22647262,0.65587974,0.5938394,0.5914695,0.28589392,0.78600335,-0.109689474,-0.122023344,0.44046807,-0.24433725,-0.61333656,-0.74199533,0.1430254,0.5126755,0.9973588,0.4792478,-0.2552886,0.13876057,0.5583298,-0.03423047,-0.047129393,0.14307158,-0.41312218,0.28036618,0.14716196,-0.89901745,0.28417918,0.8001832,0.4118119,0.48728317,0.7360118,0.68579465,-0.129864,-0.099825405,-0.62918437,-0.4076466,-0.8071348,-0.2576473,0.80587715,-0.030712284,-0.3248864,0.41303954,0.91213083,0.8225083,0.8611184,-0.4493991,0.29382533,0.61751807,-0.54623747,1.0284913,0.03215644,0.5808042,0.50598884,0.9588266,0.6495386,0.24792415,-0.121824674,-0.6649588,0.42599857,-0.8253087,0.979094,0.30334502,-0.10054103,0.3430042,0.03197941,-0.025693115,0.95792395,0.18660814,-0.59234035,0.7802753,-0.6768639,0.73953104,-0.83401036,-0.19547296,-0.7337897,-0.5146313,-0.20749807,-0.8696079,-0.2616365,-0.5248811,-0.20750332,0.7390306,0.39333677,-0.6638818,-0.014066458,0.36661816,0.15824604,0.5392122,0.26743722,-0.49267316,-0.058542967,0.953007,-0.38562036,-0.858279,-0.98233557,0.39208484,0.9271867,0.513463,0.14557576,0.38473392,0.5121355,0.13769817,0.62421083,0.8377285,-0.3796103,0.3999586,-0.04160905,-0.51315355,0.385638,-0.038509607,0.9672036,-0.7819426,-0.1627748,-0.87515974,0.17354155,0.2683072,-0.9553635,0.20138335,0.98156047,-0.7834723,0.8709967,-0.9349456,-0.91128254,0.835541,0.5936055,0.31787014,0.4889636,0.739954,-0.052348852,-0.25268602,0.29840183,-0.91841626,-0.16958499,0.41299963,0.39430404,0.9526231,0.9263494,0.7609174,-0.39971995,0.41619587,0.5550432,0.28212142,0.0362103,0.5584023,-0.05333066,0.81028867,0.5437169,-0.78865576,0.48071504,-0.7918463,0.0052583218,-0.7504375,-0.09097409,-0.97438455,-0.8819535,0.027570248,-0.3276174,-0.5891788,-0.65425944,0.9511204,-0.05794835,-0.2528212,0.16922617,0.8212166,0.67366433,-0.69434524,0.9846003,0.111735344,0.9636078,0.9592831,-0.32560968,-0.43242073,-0.46878648,-0.6907623,-0.87820077,-0.85412765,0.0034501553,0.5387373,0.2490859,0.9738004,0.14174795,-0.3413918,0.92214346,0.6989596,-0.019740582,0.20548701,0.46042514,0.44952488,0.663749,0.33320665,0.27020216,-0.77608204,0.4621973,-0.08100796,0.7757592,0.14621401,0.6515708,-0.3618691,0.8581948]},{"input_bias":146.5901,"input_weights":[-0.18836617,0.12758303,0.6539097,-0.22230816,-0.7656989,-0.7271943,-0.45090747,-0.77927065,-0.93593574,-0.10298371,3.3669786,-0.54220295,0.61261487,-0.5546479,-0.7347853,0.13613749,0.0761745,-0.28927445,0.5119009,-0.51984763,-0.9523926,0.6378269,-0.54801416,0.7022917,-0.042122602,-0.13732457,0.87200594,0.12739992,-0.7883694,-0.53054905,0.4682536,-0.28769732,48.00526,0.42752314,-0.6199925,0.926106,-0.1592381,-0.20160437,0.78820133,0.42459774,0.94905376,-0.7915547,0.9245138,0.5074518,0.6012771,-0.7342415,-0.9252224,-0.90380836,0.8065133,0.17216069,-0.29038915,1.84717,0.6231519,1.3963851,-0.44829217,0.45831606,2.5076985,0.63643616,3.6895316,1.194382,0.66015387,1.5929352,1.4509554,4.849964,0.65941083,2.9750483,1.1692393,2.4145553,5.6683016,0.94306046,5.1817083,0.85911375,2.6362824,1.7671343,0.62721324,8.640879,0.7153308,1.8238168,0.42967632,2.9958472,7.71137,0.41715923,6.909912,-0.016624223,3.8935273,5.5889335,0.333044,5.3821344,0.40441072,2.9126072,0.024596645,2.0374863,1.9354666,-0.9906833,0.6839237,-0.98579,0.6570766,-0.8086345,0.84272766,0.2795701,-0.9578614,0.97639155,0.058935404,-0.51591396,-0.63572836,-0.85846114,0.33172703,-0.45138812,-0.1590457,0.3459921,-0.7816138,0.24710679,-0.7565954,0.794893,0.005302191,-0.84582686,-0.72608304,0.59450555,0.39814472,0.6335883,0.69139814,0.83910465,0.7315736,0.76279163,0.8433137,-0.44518328,0.8628733,0.93785906,0.69172144,-0.017329216,-0.5207267,-0.9428375,-0.40294003,-0.5248966,-0.3523407,0.2285192,0.09360242,-0.65840745,-0.98645353,-0.784935,0.24173093,0.059084415,-0.85220313,0.36005187,-0.27742767,0.33808255,0.78798795,0.63451314,0.96439576,0.7147889,0.19000793,-0.51302075,-0.114741564,-0.05752039,0.8708334,0.006364107,0.25385714,0.49044466,-0.061368227,0.10869169,0.7029958,0.11937547,0.37152958,0.022130728,0.34694982,0.7806177,0.43198204,-0.4066956,0.12607431,-0.6897545,0.33780932,0.21308708,0.44486237,-0.913908,-0.2945547,-0.7761619,0.26397514,-0.3885002,-0.48730016,0.86323714,-0.47643566,0.77871656,-0.8878341,0.79642487,-0.022015333,-0.55709076,-0.95350885,-0.1877861,-0.33141422,0.72224236,0.37131453,-0.1974442,0.547261,-0.97929835,0.27000666,0.37638617,0.34783673,0.53114843,-0.5397341,-0.8263843,0.7105508,0.08455658,-0.16486406,0.75318813,0.098600864,-0.68388057,0.36535478,-0.15822506,-0.9705751,0.42903614,0.4377222,0.71992946,0.5660534,-0.85296965,-0.12514639,-0.59059906,-0.97112846,0.77770185,0.4840362,-0.35227513,-0.3105936,-0.48971462]},{"input_bias":6.009637,"input_weights":[0.66923857,-0.39094615,0.14384961,0.79945755,0.8258364,-0.6371968,-0.26608872,-0.5027747,0.3734069,-0.1914134,0.27929804,-0.4155903,0.46445656,-0.3570261,0.34421563,-0.37342858,-0.85160875,-0.05337286,0.8451128,-0.23778272,-0.8151319,-0.50204206,0.26233816,-0.6997957,-0.84779143,-0.81449056,-0.45644283,0.85231256,0.09354687,-0.20777273,-0.37408185,-0.73107076,0.81285733,0.11614585,0.38509655,0.9507222,-0.025697231,-0.4072528,0.35268235,0.8604305,-0.76745296,-0.42701435,0.28949738,0.8432305,0.7053963,0.21538806,0.9663487,0.5333588,0.9614298,-0.8847965,0.6062221,0.70993626,0.44392186,0.9046546,0.8190559,-0.7891362,-0.124459274,0.5760255,-0.4892663,0.90845484,0.5738894,0.5133203,-0.87327397,0.06527808,0.7623936,-0.3859617,-0.27292937,-0.7094401,-0.40469712,0.38250282,-0.1458656,0.65624857,-0.13934056,-0.391507,-0.7347589,0.3455554,-0.48202404,0.48126373,0.66470736,0.74205416,-0.17598301,0.98209894,0.9738412,-0.15976611,0.8882281,0.7307883,0.44548553,0.008946001,0.018579243,-0.4432534,-0.20674084,-0.6049256,0.9324057,-0.85611534,0.8798504,-0.0031921864,0.90864587,-0.3545239,0.41781855,0.2030828,0.94000816,-0.47206736,0.46942472,-0.596998,0.85525393,-0.8181982,0.4736619,-0.61155677,0.36189675,0.35246396,0.29544854,-0.47371554,-0.3516705,0.06589365,0.34002542,-0.92267084,0.9642987,-0.705899,-0.11578584,-0.38467336,-0.3832841,-0.66243935,0.13446641,0.31823325,-0.30002785,-0.6280477,0.75387335,-0.24308252,-0.4842837,0.82240987,-0.4573729,0.8956764,0.21423626,0.5561404,0.9358928,0.20683098,-0.40532923,-0.72514486,-0.10000372,-0.9843347,0.5634594,0.24713421,-0.46988893,-0.17844462,0.66416955,-0.39758873,-0.03811598,0.9160044,0.12132549,0.9802971,0.88145494,-0.8360679,0.5177448,0.08664775,-0.03730035,-0.6120305,0.25895023,-0.6500635,-0.2058258,-0.5897348,0.43811107,-0.7977381,0.7560983,0.8948171,0.3229792,0.65542674,0.41824317,-0.37689352,-0.78512836,-0.25472784,-0.6887331,-0.89668584,-0.68075585,0.4126966,-0.30827427,-0.7251773,-0.32960367,0.3747034,0.19912839,0.31912804,-0.55161977,0.31046796,0.752059,0.7313807,0.61974716,-0.23861074,0.29859662,0.6000576,0.05985546,0.48230767,-0.54675674,-0.82770085,-0.7425611,-0.27988815,0.54973936,0.50113416,0.06662893,-0.673867,-0.9969511,0.94800663,0.15250301,0.4102695,0.84918666,0.19975233,-0.27212834,-0.119250774,0.12688613,-0.11079764,0.023900986,-0.4423628,-0.13849854,-0.55919504,0.2403636,-0.33024168,-0.99882436,-0.74438715,-0.41164517,-0.88203454,-0.26925993,-0.86312747,0.48726082,-0.88841033]},{"input_bias":8.505408,"input_weights":[-0.9957962,-0.6058881,0.20042801,-0.983845,0.13559723,0.51942754,-0.16661859,-0.75277567,0.07777047,0.5147488,0.6309846,0.022089481,0.9732561,0.89945316,-0.66839767,-0.23892951,-0.54345345,0.47386265,0.2510066,0.30128455,0.19616032,-0.198066,-0.1932342,-0.63989663,-0.74875116,-0.9415996,0.64289975,-0.8588133,-0.93914413,0.40598607,0.5100174,0.34036732,1.7345123,-0.89507437,-0.8991802,0.7233443,-0.54521036,0.5207701,0.96223974,-0.42842102,-0.6000812,-0.815182,0.7015755,-0.42695594,-0.73568606,0.5316117,-0.899806,-0.3695011,-0.58286864,0.91673076,-0.18168478,-0.37626526,-0.18013324,-0.6095977,0.9811942,0.5728479,0.7919618,-0.85309154,0.079600655,-0.4883355,0.4421948,0.3034676,0.50687015,0.86345,0.8125426,-0.4728558,1.0166678,-0.7750348,-0.63489664,0.005212149,-0.6524714,-0.4563369,0.6194811,0.39069214,0.9256252,0.88364935,0.49535692,-0.1574242,0.032579336,0.20338205,0.7632638,-0.38020456,0.64122725,0.54705167,-0.21893334,1.1425843,0.4975632,0.6059316,-0.48077917,0.13923542,0.44297326,0.83295476,-0.49676746,-0.05603981,0.7357397,0.21641827,-0.9545684,-0.5213218,0.18617153,0.4476545,0.9315562,-0.8906965,0.15314484,-0.15987587,-0.41887045,0.58472896,0.046490192,0.22945166,-0.14081788,-0.8936596,-0.278116,0.13705707,0.95037913,0.2695117,0.83414006,0.5298164,-0.20403099,0.23441625,-0.6515887,-0.024841547,-0.014172077,-0.20135689,-0.74717593,0.8512931,-0.33950996,-0.92731905,-0.31109428,-0.70933104,-0.8601754,-0.43837428,-0.31747222,0.39918065,0.3145423,0.015769005,0.07344723,0.82505846,0.653944,-0.9698508,-0.5884192,-0.22045541,-0.09445834,-0.7557926,-0.67262435,0.4728446,0.3210814,0.09203434,0.2647307,0.61040306,-0.6330495,0.64817023,-0.14866209,0.52297115,0.68032074,0.7093332,0.42549753,0.10056543,-0.5595479,0.94228506,-0.5510161,-0.5000627,-0.06598401,0.4113841,-0.5649121,-0.12368631,0.745641,-0.52333784,-0.38445663,0.63971686,0.53631616,-0.009878874,0.21858001,0.8734107,0.9302666,0.6208546,-0.92751575,0.93800974,0.75116324,-0.523448,-0.740726,0.8781214,0.7482164,0.09411955,0.7591646,0.88651776,0.22122216,-0.6658969,0.6944275,-0.0060641766,0.54999876,-0.36344814,0.1573546,-0.0634222,-0.49780416,0.7190876,-0.93932986,-0.21919274,-0.63317704,-0.61802363,0.2884624,0.018036366,-0.39991045,-0.88755727,-0.7399764,-0.3648634,0.38468885,0.9124186,-0.19196367,-0.8630874,-0.59273005,0.053652525,-0.4125409,-0.78890204,-0.7545469,0.637748,0.16852307,0.52369905,-0.031204939,-0.9082527,0.98753667,0.82430744,0.80549216,-0.20810795]},{"input_bias":3.6108305,"input_weights":[-0.38012028,-0.98750806,0.49902868,-0.5707991,0.31728363,0.20624638,-0.59962964,-0.14631963,-0.66975784,0.5155947,0.3764722,-0.16696286,0.13461614,-0.49961734,0.6193769,-0.21802258,0.5877428,-0.8169966,0.5734513,0.13398767,-0.7771809,-0.3432591,0.9251139,-0.19457865,-0.5326779,0.89088917,-0.22324705,0.019665241,0.3470931,-0.7100692,0.4383037,-0.99818444,0.06971524,0.50132346,0.6841285,-0.33330202,0.43771672,-0.05614853,0.29265976,-0.9298239,0.97211504,0.83247304,0.8472121,-0.8550947,-0.47413406,-0.97212887,-0.8724643,-0.65213156,0.74827296,-0.849035,0.47685647,0.5625063,-0.40691465,-0.35610828,-0.9497621,-0.0031740777,-0.64126337,0.50817263,0.485273,0.5657744,1.0055048,0.4864925,0.20107932,-0.57313824,-0.6513148,0.9180956,0.29704422,-0.7149446,0.6829439,0.5720984,0.21360405,0.3872473,0.3875928,0.52113825,0.9902916,-0.75021994,0.072435476,0.59763575,0.70241976,0.7865684,-0.18867971,-0.9761896,0.63460135,0.019358074,1.010054,1.0546019,-0.9698962,-0.4788195,0.14001355,-0.8405642,-0.7154396,-0.27030355,-0.10532352,0.9697163,0.61642814,-0.018076658,-0.032075882,-0.31908178,0.34759092,0.5725765,0.028678179,-0.7854388,0.66828775,-0.80227757,-0.109247684,-0.66759086,-0.95635414,-0.19401884,0.4590392,0.6632216,0.2596612,-0.25224948,-0.7246084,-0.29055357,-0.06732845,-0.89022017,0.37715554,0.48943925,0.8771343,-0.35328174,-0.36983037,0.73390055,0.8192837,0.73497343,0.35852242,-0.26437855,0.50132394,-0.02458787,0.36621714,-0.86116385,-0.45217156,0.2187953,-0.014267683,-0.85097027,-0.4587376,0.753052,0.35118437,-0.7798476,-0.31542063,-0.14925551,0.48988628,0.6361468,-0.05803728,-0.33852124,-0.6932037,0.33436203,-0.09353542,-0.052446604,-0.9134717,0.7363205,-0.66315436,0.4583292,-0.07527518,-0.8819995,-0.346488,-0.5308461,-0.87181807,-0.27022028,-0.40605617,-0.44399452,0.67663026,0.2933061,0.27097678,-0.3294196,-0.045295477,0.09583831,0.7054362,-0.7818215,-0.65935016,0.28922606,-0.21712255,0.6565349,0.86573434,0.8342042,-0.6266682,0.43314362,-0.88645554,0.31030893,0.9345162,-0.34723282,-0.65391874,-0.31638765,0.64255,0.06850195,-0.55100584,0.11927509,-0.1259973,0.5729182,-0.2597444,0.3267808,-0.5917909,0.5970905,0.9416187,0.026178837,-0.78987217,0.8604903,-0.22946906,0.30075908,-0.17810273,-0.70972705,0.40606213,-0.25921512,-0.48903966,-0.68537164,0.71178436,0.0031101704,-0.029631138,0.7079308,0.36936522,0.42640352,-0.7660339,-0.4191544,-0.46718168,0.08027506,-0.4095912,0.24000692,0.09660244,-0.77025485,-0.52855134,-0.28595424,-0.75085783,-0.42794466]},{"input_bias":0.42575717,"input_weights":[-0.33654952,0.006388426,-0.81133366,0.43983865,-0.29169416,-0.44193363,-0.038294077,-0.1476202,0.9756427,-0.3971908,-0.33762658,-0.026947021,0.4949417,0.39240265,0.30891728,-0.19151592,0.96003723,0.6618767,-0.9982102,-0.2577107,0.9774771,-0.2979803,-0.21177292,-0.6274345,0.19657803,-0.8801656,-0.98853564,-0.20238662,-0.93728113,-0.5526986,-0.9026315,-0.75742006,-0.6416889,0.015423775,0.7428739,-0.53922224,0.80783606,-0.71850514,-0.5625901,0.025007963,0.18641233,0.9200103,-0.8181226,0.98810434,-0.25275263,-0.5969455,-0.25522184,0.66184807,-0.5425594,-0.77858406,-0.41054463,-0.86601305,-0.38551745,-0.94164324,-0.0065151765,-0.22824894,-0.69223225,-0.036842547,0.34458822,-0.2927987,0.7510372,-0.8703937,-0.31785017,-0.19752347,-0.63580954,-0.0061434894,-0.3801156,0.67062587,0.42396596,0.38678905,0.74405825,-0.8502036,0.1034141,0.01983485,0.35943556,-0.90813565,0.8235352,-0.23223239,0.5720601,0.32834664,0.024334282,0.8021631,-0.47529095,0.852992,0.3134324,0.17749935,-0.43610364,0.7979128,0.9852834,0.29766905,0.42193502,-0.35304102,-0.81451833,0.1947453,-0.6326492,0.9352033,-0.7864256,0.42415023,-0.45651293,-0.03536272,0.6820011,0.63138294,-0.8128669,-0.8019061,0.51374626,-0.44993758,0.31149793,-0.54333925,0.4209206,-0.6978905,-0.975955,-0.15265083,0.89721966,-0.2584231,0.2323072,-0.31353426,0.16239381,-0.38638926,-0.0045289993,0.95390487,0.49852705,-0.0068633556,-0.46240568,-0.09021759,-0.027254581,0.11000776,-0.5977421,0.07395673,-0.016540289,0.09349275,0.15390539,-0.86748934,-0.95918846,-0.8898034,-0.74820375,-0.81905866,-0.3595574,-0.7028668,-0.50176764,0.4457519,-0.0016827583,-0.48290157,-0.7679031,-0.41481876,-0.6623268,-0.44242096,0.36707973,-0.4484892,0.29305816,-0.49848652,-0.9078815,-0.74314904,-0.8571737,0.23650932,-0.913075,-0.70257354,-0.6443708,-0.74844813,-0.5395458,-0.18941617,0.49446702,0.7473645,0.16520858,0.026189804,-0.23460841,-0.18482614,-0.04021573,0.76840854,0.1645813,-0.71455646,0.6747625,0.7470217,0.2872665,0.21529436,-0.7597809,-0.5049608,0.75578,0.36238718,0.4213102,0.3334875,-0.6199174,-0.92995024,-0.7673106,0.19265294,0.8076627,-0.44120693,0.7874472,0.32627916,0.3983593,0.8003917,-0.6494281,0.31167674,-0.51891947,-0.3976674,-0.01944232,-0.28772163,-0.9531622,-0.92530274,-0.58683515,-0.25813556,-0.27907968,0.62159467,-0.14405727,0.7185583,-0.08724952,-0.11429858,-0.85091186,-0.36526132,-0.6288924,-0.28340816,0.8590677,-0.4437461,0.9100108,-0.3494835,0.23259878,-0.72803926,-0.6488812,0.6619725,0.31798363,0.6521652,0.019444227,-0.30862188]},{"input_bias":-0.50456333,"input_weights":[-0.3713038,0.44417095,0.5089276,-0.19674063,-0.2293148,-0.9172511,0.8378277,-0.9457264,0.11613369,0.46990657,-0.36515388,-0.60852003,0.9870877,0.8426807,-0.3097043,-0.02380085,-0.10795355,0.2508707,-0.7712712,0.2342701,-0.53995657,-0.14613843,0.11670208,-0.036414385,-0.12281799,0.16265321,0.0042209625,-0.28965187,-0.40754867,-0.75889707,-0.0059039593,0.3036921,0.62973475,0.57310367,0.6399102,0.21634173,0.6989815,0.37785006,0.7198272,-0.22884154,0.16014385,-0.65005994,0.32381248,-0.08165145,-0.98182094,0.3144486,0.52676386,-0.606277,0.66499406,-0.6190936,-0.064784676,-0.8642243,-0.6449111,-0.83454776,0.99227095,0.6067381,-0.6894536,0.3594826,0.031715654,0.44907963,-0.5582861,-0.0773252,0.3783387,0.19288935,-0.049980212,0.70384526,0.5601738,0.98723495,-0.4744053,0.6204146,0.5489067,-0.6126072,-0.43297866,0.16925445,-0.32787743,0.45225963,-0.40258932,0.06915215,-0.5850032,-1.0003326,0.8389014,-0.6537816,-0.6801701,-0.5516691,0.16164194,-0.109004386,-0.030060133,0.38491067,-0.727803,0.85580605,0.15311189,0.20926148,-0.3997041,0.14354467,-0.9998877,-0.7302277,0.7787106,-0.009809971,-0.63018274,0.90113735,0.17900538,0.44619656,-0.004520178,-0.2999804,0.49065065,-0.56499195,-0.90141034,0.38845944,0.90890574,0.08821368,-0.18665004,-0.18371367,0.3439846,0.99893856,-0.60876584,-0.6156006,-0.11772323,-0.4298458,0.19503927,0.5691478,-0.75704765,-0.25597334,-0.81198025,-0.18012977,0.52758646,0.80184555,0.34697866,0.72154045,0.55356646,0.0744288,-0.8024192,-0.9499271,-0.7287605,-0.5583532,-0.68454075,-0.12562871,0.62021065,0.35086775,0.41654706,0.56170535,0.83369637,0.7855797,-0.18143034,-0.24446535,0.3971753,-0.3655753,0.29636598,-0.9289334,0.8664794,0.10835719,-0.6248646,-0.91668653,-0.049263,0.022547722,0.41616058,-0.80372834,-0.3343327,-0.21501088,-0.38364005,-0.4719,-0.86440706,0.9420142,0.07186246,0.08661127,0.016844273,-0.8396981,0.1606865,-0.44630122,0.7010772,-0.15126324,0.36860442,-0.6410582,-0.34600067,-0.38969684,0.58416176,0.8665247,-0.63486123,-0.60404086,0.43327904,0.8296199,0.4214406,-0.12715149,-0.29916143,-0.7217233,0.20625782,0.88918567,-0.39659,0.3248632,0.7807183,-0.66646147,0.5414717,0.018077374,0.47460818,0.35119772,-0.94505835,-0.98157406,-0.8963449,-0.40667105,0.36224914,0.20836663,0.101979256,-0.49953294,-0.91402984,0.45071912,-0.13377738,-0.7050252,-0.8288462,0.9667783,0.058042765,0.64158297,-0.8901417,-0.7740357,-0.5885248,0.1869433,0.3894887,0.009118795,0.102320194,-0.25240946,0.05824852,0.63963413,0.97009206,0.28763032]},{"input_bias":27.322092,"input_weights":[0.9697888,0.2533481,-0.1945107,0.9315915,0.41746473,0.9944544,-0.83705497,0.45848584,0.16465282,0.7360747,0.5956509,0.7423544,0.12571645,-0.36197734,0.4695549,-0.87845564,-0.63823056,0.64308333,-0.5630133,0.26627898,0.00077962875,-0.031199455,-0.69985056,-0.6193497,-0.106683016,-0.9701352,0.8975837,0.5101676,-0.5291486,0.685879,-0.3610077,0.6666255,6.6727505,0.8078108,0.930423,-0.7676971,-0.08494258,0.8903053,0.010954618,0.009390593,0.40303135,0.42375135,-0.8236067,-0.7395222,0.82916605,0.36859083,-0.3836899,-0.16762781,-0.02113994,-0.6898363,0.9180897,-0.11387059,0.43397075,0.9406371,0.6493516,0.53181434,-0.54627556,-0.21673931,0.19328178,-0.5742739,0.20485267,0.9490733,-0.830199,1.9983109,-0.8390069,-0.5967189,-0.04083713,0.59828514,0.8586174,0.48306775,0.53358346,-0.079757,0.96887857,0.33517444,0.8749439,0.18158133,0.7905818,0.6673151,-0.22325115,-0.7182463,0.67872375,0.6152355,1.5481671,-0.20291951,1.0998882,1.2425237,-0.3708155,-0.031929534,-0.082816005,0.61343515,0.2939614,1.0020428,0.6464006,0.91889524,0.3637681,-0.8337965,0.99358225,0.022170305,-0.2923324,0.8863871,-0.32065392,0.5550308,0.5730989,-0.12835193,-0.74314666,-0.32173586,0.6393099,-0.61156297,-0.29066038,-0.3989699,0.54537916,0.81348133,0.32005072,0.09754276,0.73785543,-0.42296648,0.9061434,0.88815594,-0.71891165,0.10430622,-0.32956624,0.18036151,0.09550309,-0.6783409,0.40257788,-0.6069155,-0.5180533,0.7130451,0.44550395,0.3696587,0.88474464,-0.08356094,-0.13613534,0.8440645,-0.24212027,0.5263729,0.47264576,0.73762846,-0.99883103,-0.80200267,0.26571083,0.9126036,-0.0040757656,0.14686608,0.46129417,0.83354735,0.5173645,-0.3759768,-0.12275171,0.8859699,0.64167833,-0.3774824,-0.65155554,0.80012274,0.25396943,0.7054932,0.48283434,0.34604692,0.2972865,0.92560935,-0.26682448,0.15716815,-0.041002274,0.12193012,0.42014337,-0.49849772,-0.07736611,-0.5537424,-0.22740173,-0.9964862,-0.97778296,-0.5767772,0.5749898,-0.7795117,-0.4542868,0.505739,-0.01723814,-0.9239919,-0.69971514,0.73725176,-0.22932816,0.12180209,0.24725676,-0.44949794,0.8081727,0.84167385,-0.43291903,-0.5150454,0.42984557,0.04356265,0.401021,0.8278706,-0.14666772,-0.5907142,0.15993905,0.9594426,-0.6744516,0.41105485,-0.5243466,-0.49035478,0.9295504,0.7000916,-0.728451,-0.95370793,-0.2902906,0.3743825,0.43102264,0.5899677,0.8932266,-0.34625983,-0.9025955,0.42082763,0.7333169,0.020143747,0.054070473,0.5615587,-0.0019292831,0.1673572,-0.46350956,0.45596433,-0.38450146,-0.06649113]},{"input_bias":-7.8495946,"input_weights":[0.80678487,-0.78445506,0.87691164,-0.110595465,-0.7790482,-0.48179007,0.7116692,0.4966104,0.23019075,0.6578121,-0.26745096,0.9811647,-0.17646146,0.9590752,-0.0691905,-0.34152198,0.24288917,-0.21228695,-0.25956106,0.035737038,-0.6147828,0.76290584,0.6197779,0.084738255,0.6728797,-0.5679641,0.68296957,0.96939373,0.7500789,0.069087505,-0.2586403,0.4819305,-0.42711172,0.6397929,-0.5936582,-0.0516181,-0.7598655,0.042256117,-0.3099861,0.11546898,-0.7260201,0.58361936,-0.9518542,-0.20198512,-0.6699662,-0.6466341,0.6902531,0.8699634,0.26908278,-0.26162088,0.6196524,0.53006697,-0.67179537,0.79934645,0.37938488,0.46929425,0.74563485,-0.7099256,0.08555515,-1.0147207,-0.23459965,-0.1848173,-0.2683688,0.574377,-0.105573446,-1.3301603,0.5861706,-0.15512127,-0.9182221,-0.022892868,-0.9502569,0.28051427,-0.4163848,0.5915923,-0.13892506,0.44264644,0.09092491,-0.324546,0.3560113,0.17966914,-0.14046626,-0.27618146,-0.972757,-0.7601889,-1.1473924,0.02387038,-0.9123927,-0.59707135,-0.6411782,-0.9974176,-0.2884401,0.3387141,-0.18743588,0.48530364,-0.12903881,0.23410296,-0.423275,0.98924327,-0.5434568,-0.6735964,0.608413,-0.38503337,-0.19124484,-0.15137315,-0.3828206,-0.23499703,0.3945663,-0.46294236,0.2473712,-0.9064274,0.90495825,0.062334538,-0.9016049,-0.8938849,-0.4532225,-0.48858476,-0.48488283,0.45228076,0.772907,0.87155914,0.104887724,0.4177735,0.959244,0.07897568,-0.5463035,-0.022051573,-0.2582898,-0.10107064,-0.74795103,0.74300766,0.7342329,0.7905495,0.2865057,0.5014622,-0.54804826,-0.56754446,-0.2465899,0.87308335,0.7041805,-0.82153106,0.4323597,0.32174873,-0.036681175,0.58899665,-0.5738313,0.34240556,-0.67841244,-0.14384961,-0.4377401,0.42171574,-0.5853667,0.012887001,0.5935848,0.5854559,-0.8510804,0.56500435,0.4885571,-0.34875083,-0.017853498,-0.3039329,0.28269005,-0.99837327,-0.37796235,0.6520748,0.5435314,0.60391355,-0.38472295,0.30966663,0.84007025,-0.5508032,-0.08766532,-0.35034227,-0.42648005,0.0655036,0.33940125,-0.23298931,